432 100
plane -0.49877 -0.59233 0.22764 -0.14788 -0.22002 0.24522 0.22953 -0.29229 0.3839 0.41087 -0.97256 -0.55341 -0.35528 -0.18064 0.098581 -0.33138 -0.00556 -0.065816 -0.58098 0.19643 0.45758 -0.077379 -0.32839 0.25557 0.26908 -0.21087 0.39147 0.76999 -0.10481 -0.15451 0.065775 0.26998 -0.20795 -0.13625 -0.46446 -0.58506 0.12544 0.22183 -0.31919 -0.27267 -0.14593 0.061453 0.25137 0.21355 0.50192 0.48614 0.43727 0.8615 -0.2315 -0.46188 -0.58688 -0.025163 0.46327 0.1343 0.20403 -0.47111 0.12844 0.28103 -0.28522 0.74425 0.51654 0.11337 0.23245 0.54576 0.22931 -0.22134 -0.44672 0.33832 0.13343 -0.2997 0.23932 0.59747 0.13464 0.015877 0.034724 -0.13857 0.26584 0.12993 0.24508 0.028198 0.57576 -0.011592 0.42567 -0.10104 -0.62126 -0.3338 -0.060496 0.81287 0.31793 -0.14694 -0.0091878 0.47031 0.4204 -0.076582 0.44083 0.17912 -0.3407 -0.15483 0.37294 -0.18805
stupid 0.0041528 0.056408 0.2065 0.035569 0.1198 0.171 0.071053 0.14897 0.75228 0.33675 -0.079321 -0.041706 -0.076688 0.25162 0.49615 -0.43092 0.13394 -0.050408 -0.40353 0.31762 0.017194 0.083686 0.20529 -0.29385 0.30687 0.81076 0.37706 -0.13781 -0.29904 0.42165 0.681 -0.25052 -0.092799 -0.079509 -0.82041 -0.21712 0.14708 0.34559 0.39398 -0.40147 -0.59665 0.094612 -0.15168 -0.19644 0.19354 0.32274 0.18295 1.1404 0.041453 0.28078 0.11726 -0.53439 -0.31986 0.54801 0.001644 -0.019953 -0.31299 -0.24374 0.11077 0.6619 0.52082 -0.34235 0.9029 0.34442 0.19374 0.0060102 -0.25414 -0.11606 -0.40431 0.24506 -0.1264 -0.68782 0.6853 -0.26769 -0.68257 0.023718 -0.25823 -0.44409 0.081077 -0.082407 0.76283 -0.3672 0.14201 0.21023 -0.20174 0.050866 0.01823 0.056354 0.69578 -0.071703 0.31678 -0.019646 0.40394 -0.19594 -0.14062 -0.47998 0.16656 -0.14992 -0.38573 -0.021735
egg -0.40529 0.30104 -0.41833 0.43249 0.69286 -0.40954 -0.43254 -0.17945 0.15061 0.053027 -0.44572 0.54859 0.19465 -0.13032 -0.47267 0.10576 0.21397 -0.62625 -0.33383 -0.065763 -0.17401 -0.21009 -0.40966 0.16499 0.084412 -0.35551 0.28247 0.083957 -0.19096 0.48188 0.55568 0.49425 -0.51898 -0.071717 -0.19684 -0.21038 -0.09458 -0.3355 0.087762 -0.11085 0.52879 0.13165 0.17886 -0.29428 0.39783 0.7485 0.11464 0.9053 0.26428 -0.54575 -0.23031 -0.38055 -0.13649 -0.16569 -0.32641 0.18002 0.60402 -0.04579 0.35082 0.57853 0.65392 -0.43253 0.87282 0.73703 0.07907 0.43294 -0.34853 0.26872 -0.94671 -0.08264 0.031038 -0.072815 0.095029 0.010275 -0.51659 0.17689 0.23833 0.86068 -0.12935 0.21668 0.95308 -0.56643 0.39567 -0.034571 0.25376 0.7664 -0.18538 -0.21706 0.42202 0.33782 0.05566 0.156 -0.028912 -0.33338 -0.55484 -0.45481 -0.73471 0.48888 -0.052741 0.81173
year -0.053937 0.065177 0.1702 -0.3232 -0.1114 0.21948 -0.55093 -0.14345 -0.16449 -0.12755 -0.3866 -0.051765 -0.082197 0.059822 0.27508 -0.38063 0.21501 -0.3137 0.020493 -0.023726 -0.1096 -0.093024 -0.29355 0.37214 0.40876 -0.31999 0.30565 0.14791 -0.15726 0.10217 0.11035 0.72418 0.43453 -0.31905 -0.28578 -0.15784 0.20616 -0.016167 -0.2294 0.018865 -0.42994 0.071868 -0.015751 -0.28454 0.040301 -0.23145 -0.074131 0.30052 0.4228 -0.23724 0.47415 -0.34593 0.052655 -0.16313 -0.15905 0.32656 0.16227 0.18405 0.34787 0.029493 -0.056929 0.35731 0.20481 -0.014726 0.21369 0.032699 0.10619 -0.095928 -0.16322 -0.16519 -0.29568 0.11096 0.37526 -0.25006 -0.31194 -0.10975 -0.26911 0.15299 -0.44245 0.36814 0.14709 0.14636 0.13716 0.32941 0.28099 0.1767 -0.14411 0.44511 -0.18833 0.27091 -0.16524 -0.35471 0.059417 0.093454 -0.32526 -0.078495 -0.080667 -0.66919 -0.0059637 -0.30989
psychiatry -0.17112 -0.38623 0.14262 0.08277 0.5483 0.98816 0.76012 -0.38707 0.059744 -0.79511 -0.39451 0.24951 -0.035072 -0.37056 0.20089 -0.14327 -0.32488 -0.57068 -0.34398 -0.28132 -0.2195 -0.57395 -0.48559 -0.22119 -0.18576 -0.21228 1.3445 0.0606 -0.48067 0.42896 0.42305 -0.34836 -0.19458 -0.10629 -0.85318 -0.11599 -0.21988 0.15594 0.14589 -0.53673 0.58142 0.40488 0.14329 0.28438 0.15568 -0.22316 0.16921 0.27511 0.14927 0.98376 0.2118 0.075478 -0.47869 0.082821 -0.60227 0.5553 0.13528 -0.2294 0.48138 0.56064 0.34818 -0.6352 0.0031193 -0.42286 0.5538 0.42871 -0.15315 0.32373 -0.51503 0.20912 0.094668 0.38381 0.45911 -0.5627 -0.075103 0.38027 -0.68285 0.07469 0.38967 0.502 -0.24501 -0.10056 0.2084 -0.45133 -0.13708 0.027472 -0.48303 -0.43348 0.38467 -0.77579 0.21964 -0.32554 0.70337 0.56647 0.021886 -0.15363 -0.48797 -0.58459 0.13508 -0.3568
asylum -0.22706 0.20631 0.055634 -0.065766 -0.14627 0.013808 -0.40271 0.011716 0.53202 -0.41428 -0.64924 0.05296 0.46999 0.40117 0.14576 -0.9265 -0.19628 0.40381 -0.1833 0.4774 0.34803 -0.070356 -0.50699 -0.28159 0.44226 0.24094 0.58258 0.072167 -0.085984 -0.030364 -0.75714 -4.1911E-4 -0.022482 0.20493 -0.69897 -0.074982 0.10361 0.024123 -0.24137 0.33459 -0.55087 0.013588 -0.01531 -0.19336 0.24688 0.020562 -0.27812 0.4465 -0.18164 0.10825 -0.25052 0.064074 0.14557 0.18641 0.21025 -0.17725 0.76287 0.2854 0.062052 0.49544 1.2344 -0.43553 0.33926 -0.40822 0.51042 -0.051495 -0.34951 0.033311 -0.77036 0.47677 -0.21663 0.45909 0.26426 0.15605 -0.31275 -0.035592 -0.38301 1.0057 0.38357 1.0781 0.24788 -0.059013 0.31071 -0.32997 0.03493 -0.17531 0.54829 0.33737 -0.36621 -0.45097 0.056886 -0.034358 0.90059 0.54064 0.30215 0.049827 0.31008 -0.67808 -0.10138 -0.79995
manslaughter -0.22518 0.009412 -0.0080641 0.18031 -0.48743 -0.092077 -0.3193 -0.24377 0.1754 0.1537 -0.54669 0.50158 0.26723 0.86258 0.19823 -0.12847 -0.42728 0.068207 -0.84583 -0.36174 0.25756 -0.67413 -0.69464 0.14567 0.44079 0.37309 1.6634 0.11323 -0.16605 -0.097028 0.52139 0.117 -0.27219 -0.31777 -0.33104 0.17698 0.22359 -0.16424 -0.20196 -0.1989 0.22655 0.38508 -0.56631 0.20647 -0.052037 -0.003407 0.0061982 0.52419 -0.22895 0.63183 -0.035551 0.22467 -0.14262 0.033913 -0.59074 -0.0051739 -0.27655 -0.18255 -0.26791 0.35264 0.25796 -0.048451 -0.23384 -0.44299 -0.14903 0.32881 -0.20482 0.055291 -0.77951 -0.2517 0.17394 0.44331 0.18193 -0.48481 -0.3789 0.34807 -0.73663 0.38517 0.53291 0.45074 -0.26339 -0.2006 0.47246 0.33928 -0.48567 0.54233 0.19372 -0.52707 0.68341 -0.33066 -0.44538 -0.35789 -0.62674 -0.12652 0.20015 -0.59668 -0.66085 -0.433 0.58955 -1.0008
music -0.32218 0.2852 -0.28545 -0.22783 0.25853 0.48826 0.03301 0.010868 -0.30063 -0.081663 -0.18917 0.64272 0.13913 0.26819 -0.16035 -0.94337 -0.17764 -0.85323 0.033457 -0.5831 -0.3461 -0.22094 -0.12356 -0.29201 -0.12949 -0.19927 -0.14824 -0.22213 0.51736 0.28955 0.10595 -0.22577 0.12363 -0.27859 -0.378 -0.90984 0.052689 0.1938 -0.35859 -0.98091 -0.066742 0.094241 0.26189 -0.24366 0.2937 -0.25731 0.21813 0.061862 -0.48479 0.60757 0.3317 0.10743 -0.0077556 0.16027 0.069434 -0.16508 0.42762 -0.4923 -0.26647 0.017601 0.81386 0.33882 0.11364 -0.031895 0.041062 -0.26919 -0.42248 -0.3325 -0.41518 -0.02409 0.15461 -0.3155 0.54531 0.10821 0.041562 -0.06218 0.18795 0.051571 0.043942 -0.057973 -0.078085 -0.51455 0.73848 0.40775 0.42587 0.19575 -0.32624 0.084676 0.36514 -0.23286 -0.1709 -0.21397 0.12604 0.48139 -0.27887 0.06605 -0.1665 -0.32959 0.31278 0.17517
record -0.26968 -0.17812 -0.46985 -0.63859 0.31208 0.34709 -0.39969 -0.71023 -0.68352 0.34145 -0.38628 -0.14831 0.159 -0.016994 -0.46383 -0.34653 0.55398 -0.5234 -0.20389 -0.2148 -0.016135 -0.11294 -0.083069 -0.24745 0.37571 -0.35234 0.38394 0.30139 0.14705 -0.11348 -0.022229 0.34859 0.062624 -0.37001 -0.3587 -0.17663 -0.37952 -0.34906 0.051763 -0.1952 -0.67187 0.053883 -0.56087 0.38136 0.36491 -0.25093 -0.086737 0.22772 0.2166 -0.12113 0.70544 -0.071545 -0.043864 -0.14476 -0.0022865 0.075167 -0.28967 -0.35961 0.24123 -0.17213 0.19904 0.40604 0.49635 0.089717 -0.3501 -0.5125 -0.12973 -0.10658 -0.063744 -0.11279 0.08211 0.033564 0.4153 -0.1476 -0.026653 0.056699 -0.211 0.22289 0.029547 0.60719 0.4571 -0.074649 0.47313 0.47412 0.39143 -0.24977 -0.20847 0.12141 0.010357 -0.59944 0.35318 -0.3024 0.026702 -0.42761 0.15976 -0.40175 -0.15769 -0.15815 -0.51333 -0.084104
energy -0.016536 -0.17092 0.14535 -0.3125 0.292 0.16615 -0.14889 -0.51266 -0.29137 -0.044648 -0.45633 -0.33269 0.18967 -0.52807 0.38584 -0.1307 -0.39451 -0.31822 -0.43922 -0.36412 -0.054589 -0.4414 -0.0046933 -0.046818 0.076188 -0.31218 0.45558 -0.16504 -0.072006 -0.18809 0.04813 0.76343 0.36512 0.9704 -0.044408 -0.060091 -0.57145 0.0043772 0.17098 -0.61333 -0.43137 -0.083588 0.18068 -0.18221 -0.26467 0.36232 -0.010233 0.34325 -0.39114 -0.13655 0.30897 -0.31892 -0.37582 0.26638 -0.31954 0.1089 0.064514 -0.20637 0.25553 0.0032301 1.1715 0.29081 0.17373 0.082081 -0.15068 0.03629 -0.76881 -0.36922 -0.52576 -0.02361 -0.080516 0.22174 0.15777 0.63672 -0.31792 0.17308 0.58368 -0.024196 0.18944 -0.10384 0.12854 0.024126 -0.2658 0.19739 0.45 0.47372 -0.71517 0.34899 0.39803 0.34976 0.33879 -0.72883 -0.16487 -0.43827 -0.16263 0.45764 0.32051 -0.29765 0.24233 -0.14554
announcement -0.19335 -0.088675 0.18456 0.018638 -0.3297 0.31094 -0.091496 -0.037999 0.05334 0.16469 -0.28771 -0.35072 -0.11284 0.39466 0.2047 -0.74171 0.14544 -0.37938 0.30302 0.15008 0.24157 0.69978 -0.29883 0.084673 -0.40361 -0.042934 0.50286 0.042441 -0.080458 -0.45055 -0.08299 0.323 0.071288 0.0071398 -0.077828 -0.99379 -0.03179 -0.22342 -0.14325 -0.24841 0.33252 0.026448 -0.17211 -0.26792 0.14144 -0.016701 -0.16917 0.34413 0.16679 -0.032919 0.54839 -0.20702 -0.31602 -0.36563 -0.056659 -0.35608 -0.24758 0.19767 0.2012 0.041376 0.62108 -0.33287 -0.014716 0.67577 -0.12876 0.14684 -0.29587 0.12151 0.058828 -0.83053 -0.50526 0.23305 0.58031 -0.053968 -0.4163 -0.32765 0.087232 0.2128 0.21834 0.41332 -0.079374 -0.081938 0.18416 -0.069435 0.084742 0.39083 -0.54633 0.39919 -0.012815 0.22683 -0.2128 0.023459 -0.28456 0.063423 -0.0026751 -0.10188 0.052469 -0.10845 0.32377 -0.54919
mile 0.39232 -0.45496 0.2662 -0.18792 -0.40632 -0.44181 0.07543 -0.19439 0.24275 -0.18079 -0.49285 0.016822 0.23203 0.29394 -0.34303 -0.62041 0.042412 -0.63319 -0.1175 -0.59208 0.26905 -0.15905 -0.24826 -0.24029 -0.2549 -0.59139 0.7604 0.79385 0.24286 0.56315 -0.02884 0.57031 0.28885 -0.045554 -0.85879 -0.22924 0.4315 0.044188 0.62933 0.37482 -0.36331 -0.036981 0.60087 -0.10487 0.26851 0.23402 0.14904 0.14508 0.05416 -0.8956 -0.2592 0.43206 0.30017 0.26033 -0.30559 0.59578 -0.18148 0.16149 -0.38053 -0.57381 0.20521 0.9757 0.5728 -0.082936 0.42025 0.051622 -0.089086 0.57127 -0.13557 -0.22896 0.035301 -0.12828 0.47564 0.23151 -0.41881 0.21128 0.11812 -0.06888 0.54232 0.31091 -0.37077 0.28872 0.10746 -0.01462 -0.18703 -0.25779 -0.39917 0.48319 0.097778 0.24805 -0.089119 -0.46261 -0.056627 -0.26889 0.1724 -0.38799 -0.5522 0.064424 0.23659 -0.095614
airport -0.77611 -0.76952 0.13267 -0.36613 -0.37732 0.32198 -0.39543 -0.23327 0.90649 0.31903 -1.2507 -0.32131 -0.11134 0.046802 0.20745 -0.60079 0.092178 -0.26031 -0.42531 0.041284 0.34637 -0.066084 -0.034247 0.3461 0.16421 -0.15681 0.74771 0.33905 0.24495 -0.3133 -0.17428 0.10699 -0.088022 -0.29158 -0.46403 -0.26591 0.25265 0.58687 -0.15856 -0.1089 -0.13602 -0.080011 0.41192 0.43227 0.41434 0.04602 0.42535 0.2371 -0.50692 -0.46808 -0.52256 0.058768 0.21356 -0.26631 -0.24154 -0.077336 0.56301 0.53243 -0.54542 0.01096 0.69621 -0.187 0.18101 0.4121 0.14079 -0.0020639 0.067526 0.55966 -0.15869 -0.17321 0.11323 0.75979 0.25109 -0.08481 0.090868 0.031218 0.53967 0.23845 0.58611 -0.18832 0.3153 0.36698 0.31267 0.030238 -0.23607 -0.26661 -0.024914 0.2813 0.23944 0.063064 0.24191 0.17526 0.51062 0.056885 0.12643 0.1914 -0.13297 -0.53184 0.31052 -0.14152
population -0.17367 0.089408 -0.34043 -0.24024 0.14593 -0.024442 -0.39489 -0.041588 0.21839 -0.20411 -0.05841 0.69644 0.43151 0.022388 -0.18597 -0.079465 0.30522 -0.013301 0.020694 0.10637 0.18682 -0.52916 0.18218 -0.1383 -0.0082054 0.38613 0.70074 0.48788 -0.13187 0.49163 -0.32965 0.75185 -0.2243 0.29639 -1.1779 0.034554 0.17832 -0.32326 -0.44587 0.13235 -0.19867 -0.083842 0.29852 -0.086413 0.012241 0.27359 -0.059282 0.4498 -0.081845 -0.71031 0.15429 -0.54853 -0.44012 0.56909 -0.36534 0.0048296 -0.044591 0.65463 0.088661 0.11756 0.57482 0.023806 0.55641 -0.42216 0.41994 -0.56191 -0.29861 0.038675 0.056089 0.11935 -0.091758 0.46619 0.011641 -0.57999 0.020419 0.43712 0.35564 0.4855 0.11189 0.787 0.078834 0.21702 -0.08708 0.08246 0.22294 0.098223 -0.13918 0.34927 0.57123 -0.15524 0.33526 -0.17556 0.29928 0.071611 -0.53493 0.27172 -0.62764 -0.61055 -0.028623 0.095586
planning 0.056907 0.088346 0.18478 -0.033677 -0.26078 0.60782 -0.3606 -0.078574 -0.24596 -0.23594 -0.102 -0.48795 -0.24711 -0.087831 0.4547 -0.53923 -0.025435 -0.0071114 -0.47568 0.047393 0.2937 0.17843 -0.23486 0.006441 0.080603 0.041632 0.32274 -0.030551 -0.097363 0.22255 -0.13216 -0.0035769 0.0071155 0.22502 -0.080874 -0.65026 -0.2534 0.32025 0.10469 0.010322 -0.35186 -0.13921 -0.10613 0.31267 0.083414 0.13726 0.41828 0.20527 -0.20015 0.04687 0.21196 -0.30135 0.084048 -0.026524 -0.22863 0.0060008 -0.013988 0.1517 -0.0034102 0.10138 0.42115 -0.62798 0.21812 -0.0014462 0.43186 -0.14735 -0.014373 -0.30404 -0.55529 -0.30178 -0.27079 0.63982 -0.1555 -0.22077 -0.23236 0.38235 -0.20164 0.25472 0.17151 0.29308 -0.29542 0.32099 0.52133 0.21079 0.1312 -0.18373 -0.3617 0.12199 0.45733 0.4096 -0.20259 -0.21242 -0.25287 0.10751 -0.15431 -0.10239 0.23945 -0.40408 -0.011789 -0.14954
canyon -0.41044 -0.53041 0.26886 -0.10901 -0.17983 -0.58978 -0.23207 -0.84576 -0.39661 5.7808E-4 -0.29323 -0.31655 0.59551 0.094186 -0.54284 -0.61547 -0.2203 -0.33736 -0.15891 -0.71112 -0.076308 -0.3823 -0.054114 -0.01817 0.13733 -0.47207 0.60898 0.095023 -0.15015 0.69055 -0.24373 -0.22929 -0.58174 -0.12786 -0.71107 -0.27467 0.35335 0.44671 0.40257 0.21826 -0.068051 0.43283 0.63586 -0.11152 0.23611 0.28475 0.089448 0.45512 -0.31952 -0.052145 0.24404 0.62739 0.10485 -0.01711 -0.67045 0.12428 0.12244 0.36891 -0.15691 -0.25885 0.55317 0.32345 0.34803 0.092638 0.029979 -0.52729 0.0023667 0.12657 -0.031905 -0.17547 0.26298 0.23645 0.21308 0.11412 -0.45698 0.016916 0.4354 0.44382 0.30345 -0.30337 0.39935 -0.14088 -0.086087 -0.33721 -0.014395 -0.37661 -0.53434 0.61306 0.28331 -0.057892 -0.57772 -0.26472 0.050708 -0.072695 0.33248 -0.18775 -0.63351 0.34565 0.17417 0.57301
delay -0.19526 0.27961 0.1266 -0.081393 -0.29706 -0.18898 -0.071928 0.095242 0.12681 -0.21082 -0.58864 -0.45552 0.1235 0.084455 0.46807 -0.48865 0.18312 -0.31074 -0.37514 0.24977 0.43507 0.13755 -0.22304 -0.22225 0.030726 0.53457 0.29096 -0.078141 -0.010461 -0.075401 -0.22602 0.28215 -0.29706 0.27939 -0.21319 -0.83521 0.34771 -0.40942 -6.3343E-4 0.077691 0.017717 -0.19488 -0.42747 0.088783 0.38716 0.25563 0.17362 0.17547 0.39851 0.072259 0.5209 -0.32134 -0.045227 -0.18156 -0.36121 0.12799 0.3575 -0.72846 0.19654 -0.39636 0.43821 -0.39743 0.20052 0.73172 0.089267 0.26475 -0.11068 0.31578 -0.21937 -0.29949 -0.058923 0.74629 0.27623 -0.25557 -0.05099 -0.32623 -0.043068 0.42866 0.045646 0.60447 0.13928 0.31735 0.34 -0.03239 -0.50867 0.071267 -0.30258 0.49372 0.3621 0.080699 -0.082255 -0.17929 -0.47197 -0.6412 0.52953 -0.36762 -0.065402 -0.30451 0.0012444 -0.21565
size 0.078253 -0.40729 0.19639 0.10415 -0.27782 0.47516 -0.31647 -0.0058973 0.099303 0.16696 0.20254 0.29523 0.38164 -0.14289 -0.16843 -0.47171 0.13513 -0.461 -0.1233 -0.31428 0.080031 -0.21265 0.026551 0.13911 0.46324 -0.26431 0.67064 0.068123 -0.42097 0.0083846 0.075185 0.31811 0.14134 0.18136 -0.10183 -0.2593 -0.031186 -0.014197 0.045723 0.38579 -0.23961 -0.22021 0.4087 -0.22662 0.061856 0.51685 -0.24938 0.38621 0.29818 -0.48627 0.24294 -0.54002 -0.3443 0.11697 -0.13795 0.031514 -0.5296 0.33468 0.23499 0.13022 0.34361 -0.088546 0.71229 0.3712 -0.051616 -0.6647 -0.41911 0.083579 0.038644 -0.33398 0.52682 0.16724 0.33471 -0.27259 0.085166 0.43066 0.73562 0.19636 -0.65515 0.22895 -0.026578 0.037983 0.21989 -0.021893 -0.42836 0.40329 0.28804 7.6087E-4 0.57929 0.42615 -0.15279 -0.33297 0.1481 -0.12311 0.15447 0.24469 -0.60186 -0.24235 0.21152 0.47366
peace -0.20428 0.30556 -0.035243 -0.19894 0.059629 -0.7295 -0.1034 -0.41067 0.18596 0.31303 -0.64599 0.14171 -0.27013 -0.23098 0.46421 0.29172 -0.18633 -0.22218 0.48093 0.25062 -0.011184 -0.054608 0.20933 0.15801 -0.014301 0.44384 0.60596 -0.64313 -0.12323 0.41443 0.40148 0.0083673 -0.42884 -0.082177 -0.50422 -1.0682 -0.51822 -0.081905 -0.21192 -0.39849 0.11609 0.4705 0.43289 -0.097527 0.46886 0.21169 -0.20692 1.1674 -0.40676 0.073377 0.2466 0.02735 0.64916 0.070785 -0.5267 0.17057 0.16022 0.56195 -0.24091 -0.81944 0.72646 -0.20844 0.52301 -0.10863 -0.094238 -0.29037 0.0033067 -0.0090347 -0.57399 -0.2006 -0.38979 0.75326 0.75629 0.41078 0.28818 0.50384 -0.073452 0.55117 -0.18023 0.15598 0.48218 -0.38989 -0.22552 0.35119 0.73093 0.24144 0.21774 0.52356 0.30607 -1.075 -0.60238 -0.47137 0.31329 0.39848 0.3511 -0.2838 0.10572 -0.20134 0.164 -0.56913
science -0.23922 -0.45699 0.34671 -0.077796 0.76518 0.36582 0.58299 -0.11861 -0.33181 0.041756 -0.27042 0.21111 0.014273 -0.14128 0.53338 -0.036879 -0.11934 0.08781 0.29002 -0.019658 -0.2544 -0.60788 -0.010165 0.1031 -0.51127 -0.39872 0.45983 -0.064862 -0.64854 0.11324 0.0015189 0.10404 -0.19721 -0.10049 -0.63046 -0.50828 -0.41975 -0.4346 0.29209 -0.16252 -0.24365 0.13763 0.15354 -0.49859 0.49449 0.076445 0.25692 0.74788 0.021012 0.54918 0.49279 0.025261 -0.0068064 0.39304 -0.25787 -0.063729 0.12883 -0.4847 0.49229 0.35697 1.0748 -0.41459 0.042379 -0.1141 0.3646 0.16821 -0.83479 0.19057 -0.29547 0.24746 0.31421 0.20672 0.59944 -0.10959 -0.30917 0.33332 -0.54492 -0.30164 -0.31446 -0.27946 0.11008 0.37593 0.31269 0.12391 -0.1632 -0.24915 -0.24862 -0.053381 0.57962 -0.24802 0.13129 -0.35035 0.090039 0.17675 -0.13997 0.30869 -0.28238 -0.36633 -0.13146 -0.034549
dawn 0.063819 -0.15608 0.16693 0.10273 -0.34764 -0.32575 -0.5446 0.23496 0.10642 0.48615 -0.66351 0.010246 -0.044525 0.29477 -0.051578 -0.46824 -0.35466 -0.25925 -0.57046 0.1479 -0.21547 -0.16037 -0.29156 -0.024843 -0.40358 -0.038576 0.44057 -0.25337 -0.046462 0.56592 0.14155 0.19011 0.2508 -0.47263 -0.68466 -0.4108 0.33864 0.33302 0.14646 0.021702 -0.19257 0.25219 0.70458 -0.13724 0.37178 0.21931 0.35845 0.3442 0.2643 -0.25387 0.13924 0.13277 0.37654 -0.56831 -0.17062 -0.33508 0.12977 0.14333 -0.035238 0.14608 0.39533 0.24855 0.23871 -0.44927 -0.30417 -0.29196 -0.18133 0.27273 -0.0084838 -0.76435 -0.55721 0.35526 0.40048 -0.29073 0.078153 -0.21478 0.051671 0.59553 0.71258 0.21026 0.39714 0.0039857 -0.11791 0.36556 -0.18604 -0.34484 -0.20521 0.41736 0.26219 -0.024832 0.27797 0.092098 0.43219 -0.03227 -0.028931 -0.28876 0.061089 0.29672 0.24754 -0.42471
brother -0.17757 0.22306 0.28363 -0.10261 -0.11515 -0.013793 0.1806 0.37036 0.12799 -0.075718 -0.62675 0.29406 -0.44275 0.11647 0.4005 -0.75189 0.18958 0.1853 -0.27153 -0.38472 0.16266 0.34377 -0.69321 -0.084572 0.28193 0.12002 0.82742 0.32401 -0.13833 0.42311 0.2059 0.13291 0.36777 0.51265 -0.5537 -0.23223 -0.24097 -0.020909 -0.011196 -0.24441 0.12808 0.26024 -0.34225 0.023379 -0.43358 -0.21061 0.069252 0.20702 -0.72432 0.0077704 -0.090397 -0.48012 0.17568 0.31142 0.21674 0.31463 -0.14361 -0.27532 -0.61307 0.34334 -0.047432 -0.21877 -0.16756 -0.18163 0.0070303 -0.45397 -0.23312 -0.3606 -0.19403 -0.36228 -0.050923 0.505 0.47848 -0.018244 -0.25177 -0.23472 -0.10386 0.44521 0.35204 0.079078 0.65221 -0.40669 -0.078967 0.43071 -0.46682 -0.1877 -0.060088 0.11112 -0.030992 -0.043053 -0.18357 -0.59575 -0.13259 0.19777 0.064548 0.065414 -0.94865 -0.043789 0.29874 -0.30205
wine -0.38593 -0.50367 -0.18427 0.098453 0.16538 0.46324 -0.64503 -0.1675 0.51675 -0.33666 -0.62876 0.65082 0.13052 0.041113 -0.23474 -0.1844 0.19627 -0.069734 -0.27731 -0.66288 -0.28395 0.0015549 -0.51465 0.15576 0.042217 -0.23217 0.34374 -0.10906 0.25071 0.079661 0.038061 0.5836 -0.12621 -0.22227 -0.11333 -0.26245 0.4863 0.11425 0.070795 -0.14021 0.20127 -0.20331 0.097506 -0.0053755 0.22444 0.30259 -0.0014342 0.42296 -0.21387 0.084235 0.17974 0.60788 0.040422 0.045117 -0.13814 0.02934 0.1903 -0.078738 -0.09815 0.45855 0.66517 -0.21121 0.53409 -0.0032979 0.18902 -0.29564 -0.61367 -0.3129 -1.0212 -0.18496 0.6461 -0.16695 -0.18351 0.053623 -0.13429 -0.36702 0.34195 -0.0023227 0.10642 -0.43772 0.71627 -0.17582 -0.37046 0.56588 0.37775 0.65638 -0.23842 0.36885 0.34282 -0.037502 -0.28538 0.18605 0.66299 -0.046507 -0.4643 -0.52803 -0.41852 -0.24211 0.62791 0.71495
object 0.32269 0.15085 0.33002 -0.087326 -0.32188 0.075461 0.16346 -0.29909 0.059459 0.10841 -0.1607 -0.36977 0.20733 -0.053497 -0.010736 -0.27099 -0.12358 -0.15737 -0.11606 -0.41716 -0.073995 1.5153E-4 0.18632 0.27084 -0.021114 -0.14087 0.47027 -0.064271 -0.014105 0.27955 0.30535 -0.011425 -0.13319 0.22914 -0.27383 -0.5263 -0.10316 -0.15266 0.25376 -0.15852 -0.27953 0.08446 0.12227 -0.45371 0.44437 0.65433 -0.3476 0.56798 -0.1364 -0.064949 0.33526 0.10778 -0.23931 0.4893 0.28049 -0.34519 -0.14276 -0.38822 0.12564 0.43256 0.36163 -0.2261 0.71817 0.29035 0.064776 -0.38612 -0.085694 -0.12937 -0.44377 -0.22506 0.28824 0.16095 0.38473 -0.057787 0.0089893 -0.072132 0.011367 0.37681 0.15423 -0.11119 0.15213 -0.27219 0.25258 -0.31697 0.034123 -0.2776 -0.073878 0.23727 0.50131 0.32169 0.27759 -0.3111 0.14462 0.25715 0.62798 0.10327 -0.42023 0.23606 0.066881 -0.267
attitude 0.10506 -0.43455 0.25146 -0.28471 0.37939 0.042934 0.35335 -0.1222 0.19106 -0.05268 0.083182 -0.12229 -0.24853 0.096245 -0.12885 -0.49782 -0.073766 -0.338 -0.53121 0.21792 -0.11432 0.2328 0.23263 0.085852 -0.20844 0.53739 0.33596 0.23015 -0.58656 0.23726 0.15576 -0.21993 0.22513 0.012763 -0.3568 -0.59988 -0.36505 0.26784 -0.14426 -0.13738 -0.56567 0.1684 0.29262 -0.21828 -0.0021162 0.32542 -0.052401 0.14318 0.039183 -0.29758 0.85755 -0.23935 -0.61879 0.36457 0.15527 -0.10013 0.15281 0.1415 -0.17347 0.24754 0.34905 -0.077031 0.37753 0.16048 0.10792 0.18615 -0.574 -0.049252 -0.65232 -0.31306 0.17669 -0.063866 0.60458 -0.22126 -0.29616 0.088798 0.11735 0.0080901 0.38174 0.21866 0.17673 0.13283 -0.075143 0.091003 0.23292 0.48238 0.32338 -0.19146 0.44271 -0.42076 0.16874 -0.038682 0.3688 0.38802 0.32185 -0.24027 -0.10088 -0.35476 -0.10342 -0.37414
treatment -0.025096 0.055317 -0.23065 0.26906 0.28278 -0.08821 0.13808 -0.045393 0.34157 -0.39303 -0.4671 -0.10252 -0.012832 -0.23849 -0.12051 0.12239 -0.15633 -0.43456 -0.78963 0.28648 0.065875 0.23525 -0.42603 0.094392 -0.0058348 0.092551 0.8202 0.056556 -0.11529 0.21084 -0.46203 0.53361 -0.22129 0.22192 -0.16143 0.10807 0.51774 0.56339 -0.09515 -0.15558 -0.20737 0.14376 0.028246 0.1778 0.24259 -0.116 -0.35018 0.1018 0.23482 0.23646 0.63267 0.06462 -0.32726 0.51264 -0.41709 0.40327 0.28165 -0.29604 0.21356 0.176 0.75577 -0.029248 -0.086465 0.081744 0.50631 -0.076544 -0.19655 0.25957 -0.61809 0.077631 -0.54645 0.59773 0.0391 0.24951 -0.52165 0.17702 -0.19121 0.21357 0.20423 0.71286 -0.43978 0.071877 0.42875 -0.71204 -0.06717 0.54814 -0.24026 -0.24857 0.072568 -0.48419 -0.036116 -0.26644 0.42095 0.30777 -0.40809 0.020461 -0.16301 -0.12562 0.16028 -0.35969
flight -0.91194 -0.90365 0.088177 -0.292 -0.069729 0.33718 0.045103 0.18834 0.48982 0.16706 -1.0236 -0.18393 -0.24974 -0.24421 0.16995 -0.46221 -0.050139 -0.4474 -0.3445 0.5053 0.33358 -0.3012 -0.30222 0.48809 0.072624 -0.15677 0.54419 0.70198 -0.15156 -0.25687 0.036492 0.11616 -0.20904 -0.021739 -0.29447 -0.55713 -0.093353 0.3138 -0.42192 -0.057543 -0.16585 0.15919 0.35452 0.0023495 0.38542 0.52466 0.58175 0.59659 -0.15579 -0.50384 -0.25513 0.040169 0.69718 -0.047326 0.087478 -0.17528 0.052054 0.01968 -0.50022 0.28044 0.49988 0.098819 0.33885 0.84756 0.14685 -0.10033 -0.39082 0.58118 0.32794 6.8596E-4 0.56026 0.87312 -0.022762 -0.23449 0.07253 -0.20797 0.23923 0.23372 0.49943 0.24178 0.42556 0.33284 0.61238 0.1191 -0.69106 0.079197 0.17716 0.15688 0.24608 0.13114 -0.2 0.34952 0.31284 0.12977 0.043442 0.077852 -0.34423 -0.5828 0.077863 -0.27668
forest -0.29957 -0.56628 0.48933 -0.25854 -0.1753 -0.54129 -0.38695 -0.49371 0.17445 0.07165 -0.095082 0.045215 0.50471 0.36867 -0.34656 -0.22893 0.21566 -0.17165 -0.069263 -0.35426 0.36697 -0.059237 0.17669 -0.011769 0.1289 -0.08017 0.40609 0.011592 0.15293 0.85308 0.1233 0.46092 -0.42106 -0.18693 -0.64774 -0.1736 -0.011494 0.20006 0.074878 -0.20452 -0.29189 -0.037591 0.78049 0.25502 0.11051 0.16567 0.22301 0.38185 -0.40911 -0.088198 0.25022 0.015717 -0.028596 0.27027 -0.61893 0.069717 -0.0079068 0.51373 0.1545 0.19306 1.0793 0.33014 0.4294 -0.73994 -0.15561 -0.47858 -0.32104 -0.05602 0.041956 0.34444 0.058119 0.55713 -0.16121 0.11457 -0.42384 0.24732 0.35796 0.87069 -0.052424 -0.050077 0.046821 -0.30409 0.073091 0.21248 0.16157 -0.15552 -0.82133 0.17166 0.611 -0.13182 -0.068736 -0.48444 -0.38368 0.15011 0.13796 0.15473 -0.30638 0.041039 -0.20846 0.31976
abuse 0.2661 0.45869 -0.46884 -0.42675 -0.04832 0.071111 -0.061715 -0.26913 0.43504 0.10647 -0.091216 0.23235 0.52855 0.54732 0.24094 -0.62534 -0.025567 -0.3842 -0.83737 -0.35743 -0.23362 -0.023949 -0.064618 0.10534 -0.014126 0.17006 0.68007 0.2209 -0.47721 -0.575 0.1659 -0.022327 0.11528 0.47838 -0.18245 0.52484 0.33971 0.19118 -0.66259 0.071055 -0.2759 0.75662 -0.28801 -0.022975 -0.11429 -0.17159 0.21895 0.19653 -0.26886 0.70064 0.15095 -0.19788 -0.4943 0.42714 -0.44622 0.47582 -0.047436 -0.10435 0.20214 -0.32093 0.84221 0.036368 -0.16991 -0.17225 0.91741 -0.51258 -0.39583 0.22769 -0.15772 -0.27981 0.1791 0.57993 0.67275 -0.079409 -0.4708 0.60672 -0.80925 0.31 0.27305 0.40641 0.16066 -0.27045 0.34538 -0.39265 -0.11115 0.21896 -0.049514 -0.30135 0.59139 -0.079831 -0.073593 -0.24234 0.0013343 0.67941 -0.025485 -0.081754 0.10665 -0.084626 0.10404 -0.4561
criterion -0.12771 -0.081352 -0.11999 -0.42381 0.12867 0.38304 -0.032443 -0.39933 -0.02914 -0.71966 -0.048948 0.09256 0.21331 -0.33398 -0.055198 -0.14352 0.3938 -0.54075 -0.096686 0.099464 -0.20583 0.20788 0.080707 0.33308 0.68073 -0.53509 0.61286 -0.48021 0.014026 0.38912 -0.024174 0.072297 -0.2939 0.15313 -0.41808 -0.39246 0.031203 -0.22746 -0.043184 0.050444 0.20795 -0.10814 0.18935 -0.3949 -0.083556 -0.13479 -0.13156 0.39456 0.076805 0.24671 0.55295 -0.19464 -0.2407 0.39364 0.038954 -0.25037 0.023218 -0.38817 -0.060865 0.5055 0.42159 -0.46854 0.24486 0.37103 0.13329 0.22517 -0.19014 -0.10372 -0.35892 -0.36266 -0.19118 -0.017328 0.37714 0.020499 0.046851 0.31218 -0.3392 0.045916 -0.19106 0.2017 -0.24738 0.33068 0.53629 -0.18248 -0.29731 -0.080922 -0.059101 -0.22454 0.038928 0.56181 -0.05662 -0.38623 0.16137 0.1009 0.19325 -0.59411 -0.16481 -0.27558 0.25619 -0.30288
sea -0.018466 -0.56115 -0.17999 0.067723 0.22289 -0.30904 -0.16458 -0.33227 0.11909 0.070688 -0.77454 0.11807 0.4955 -0.27955 -0.1175 -0.21488 -0.58007 -0.45997 -0.24703 -0.11881 0.048058 -0.23284 0.30081 0.44851 0.13331 0.013052 0.069268 0.30778 0.10091 0.29301 -0.033869 0.34105 -0.29236 -0.4422 -0.42261 -0.19489 0.34849 0.13172 -0.32747 -0.48616 -0.2566 0.31419 0.42762 -0.22206 0.17317 0.30372 0.3617 0.32477 0.19833 -0.33274 -0.16739 -0.14926 0.53682 0.078285 -0.70779 -0.25049 -0.43592 0.047133 0.6417 0.10553 0.7164 0.57084 0.53139 -0.19512 0.089983 -0.42775 -0.58328 -0.5061 -0.26578 0.41235 0.16202 0.14714 -0.0011087 -0.065646 -0.51274 -0.020068 0.60193 0.57104 0.28236 -0.28332 0.74556 0.19024 0.030254 -0.03055 0.086343 0.19825 -0.34538 0.66519 0.38134 0.13853 -0.54516 -0.43209 0.088612 0.2787 0.33193 -0.03667 -0.35449 0.12526 -0.04934 0.19446
dollar 0.11044 -0.41241 5.6058E-4 -0.57145 0.043781 0.027444 -0.44118 -0.43089 -0.11013 -0.18887 -1.286 0.11613 -0.31005 -0.14828 -0.35889 -0.63903 0.2588 -0.08633 -0.315 -0.38679 -0.66167 -0.04807 0.043147 -0.14692 0.06376 -0.18875 0.73046 0.16469 -0.32922 -0.64873 0.25741 0.6331 -0.38317 -0.22463 0.055983 -0.71229 -0.081637 -0.04089 0.12574 -0.27775 0.23556 -0.35082 0.49564 -0.040394 -0.054768 0.11655 0.18894 0.92828 0.46326 0.25313 -0.24867 0.20862 -0.80874 -0.19276 0.27372 -0.25813 -0.40847 -0.32241 0.40162 -0.37503 0.072494 0.55025 0.51028 0.22395 0.35044 -0.21269 -0.14763 -0.27771 0.15202 -0.18662 0.0665 -0.23402 -0.35875 0.05216 -0.41104 0.43173 0.64376 -0.098415 0.15076 1.0693 0.94446 -0.11787 0.14201 0.51346 -0.23642 0.56007 -0.26214 0.50976 -0.36746 -0.22839 0.14459 -0.58051 -0.016111 0.0096555 -0.11257 0.14598 0.10945 -0.34898 -0.27956 -0.2913
example -0.023512 0.0062762 -0.034938 -0.21169 -0.17082 0.35445 -0.44888 -0.17838 -0.018372 -0.17199 -0.016788 0.12425 -0.07803 -0.18629 0.44411 -0.28867 0.2949 -0.22178 0.14876 0.17201 -0.31703 0.18966 -0.065761 -0.0014972 0.19315 -0.073237 0.34858 0.2135 0.23594 0.089392 0.0675 0.29321 -0.0053032 0.28503 -0.32465 -0.14577 0.15733 -0.11336 0.3941 -0.19762 -0.28492 0.28544 0.17476 -0.1721 0.14104 0.23618 0.1471 0.11569 0.043357 -0.32901 0.57276 0.012562 -0.32757 0.23406 -0.038645 0.031243 0.18501 -0.17255 0.25124 0.4098 0.54925 -0.14766 0.21353 0.18549 -0.0065364 0.12212 -0.015962 -0.16363 -0.1203 -0.16369 -0.3655 0.17237 0.13271 0.01597 -0.18139 0.19282 -0.14017 0.098415 0.13889 0.17389 0.011885 -0.35326 -0.25492 0.13591 -0.21843 -0.031955 -0.045954 0.14319 0.33233 -0.319 -0.023255 -0.5341 0.11393 0.19198 0.29077 -0.25705 -0.24135 -0.59124 0.23668 0.27744
journal -0.52938 -0.4711 0.49222 0.067619 0.38038 0.54792 1.0738 -0.26332 -0.49867 -0.77059 0.057619 0.43517 0.16282 0.13643 0.41043 -0.55557 -0.28392 -0.47268 0.58446 -0.10647 -0.45115 -0.19661 -0.21587 0.10269 -0.12058 -0.33383 0.82334 0.33612 -0.27985 -0.29738 0.40334 0.71328 -0.60171 -0.11359 -0.56928 0.092438 -0.13258 0.41851 -0.17549 -0.35414 0.22769 0.017367 -0.30164 -0.38588 0.55197 -0.12997 0.44846 0.65936 0.68831 0.17673 0.1883 -0.4535 0.1036 0.39195 -0.48248 0.31754 -0.20917 -0.43828 0.39819 0.12466 0.54077 -0.63618 0.49025 -0.45122 0.34789 0.20571 -0.5657 0.85238 0.16786 0.18553 -0.81087 -0.48864 0.0043739 0.17175 -0.41203 -0.23329 -0.19444 0.24226 0.28548 0.69878 -0.048441 0.0092212 0.30754 -0.48575 -0.0081633 0.66239 -0.42229 0.065177 0.57153 -0.36421 0.48568 2.9775E-4 0.0087085 1.3495 0.40342 -0.18996 -0.38577 -0.80302 0.62051 0.060718
laundering -0.76844 0.016817 0.19082 -0.28063 -0.42708 -0.11328 -0.73859 -0.35044 0.3842 -0.042523 -0.48277 0.26205 0.66471 0.57803 0.037139 -0.070632 -0.63002 0.12128 -0.28867 -0.35935 -0.031347 -0.19841 -0.1356 0.16045 0.50165 0.11633 0.91851 0.074579 -0.42378 -0.54811 -0.12807 -0.045026 0.15416 0.2336 0.46556 0.007645 0.46784 0.57008 0.39424 0.18559 -0.53946 0.15679 -0.34576 0.4776 -0.092567 -0.37572 0.62054 1.0268 -0.042662 0.52413 -0.29076 -0.29137 -1.8965E-4 0.28021 -0.72754 0.19438 0.085198 -0.017935 -0.037515 -0.077194 0.33473 -0.30067 0.058781 0.14858 -0.15074 -0.29278 -0.05914 -0.33914 -0.80976 -0.34151 0.054331 0.029541 -0.28277 0.1198 -0.72522 0.32106 -0.56859 -0.057799 0.34256 0.70975 0.53193 -0.19939 0.60421 0.30525 -0.22543 0.1947 0.36639 0.20914 0.63577 -0.069313 -0.27038 -0.6978 -0.044106 -0.081402 -0.21497 -0.113 0.23124 -0.072661 0.33074 -0.33037
hotel -0.47059 -0.39606 0.16464 0.30966 -0.40045 0.52279 -0.37109 -0.18154 0.39587 0.20635 -1.0254 -0.27306 -0.27847 -0.14946 -0.035202 -0.60629 -0.18401 -0.34014 -0.65221 -0.4451 -0.43772 0.11484 0.12835 0.32759 0.28536 0.24184 0.74401 0.032719 0.29843 0.0066565 -0.21892 0.015105 -0.086422 -0.13422 -0.16976 -0.017265 0.14573 0.45335 0.25182 -0.14971 -0.052042 0.05171 0.49997 0.23957 0.44531 -0.12051 0.35453 0.26268 0.15962 -0.36545 -0.13108 0.60689 0.39837 0.084136 -0.028896 0.27476 0.063384 0.43412 -0.5245 0.35902 0.38636 -0.25712 0.3527 0.17452 0.016473 0.012146 0.27555 -0.12957 -0.073466 -0.47693 0.5076 0.39032 0.24042 0.33542 -0.47832 0.35224 0.11978 0.21092 0.19493 -0.29317 0.34978 -0.14696 0.24628 0.29669 0.38822 0.023427 -0.50273 0.070078 -0.31186 0.17683 -0.29584 0.11805 0.098164 0.23614 -0.23904 -0.044388 -0.42063 -0.40475 0.57703 0.070844
term -0.23756 0.67275 0.29648 -0.39713 0.0036861 -0.22322 -0.51216 0.053339 0.15004 -0.33085 -0.40074 -0.34756 0.027283 -0.13209 -0.050959 -0.0028767 -0.0069447 0.13794 0.2254 0.12306 0.21593 0.22934 0.13533 0.10664 0.0333 -0.31107 0.72999 0.30454 -0.04398 0.33715 -0.10223 -0.32461 -0.27444 -0.39218 -0.31024 -0.014562 0.30052 -0.27264 0.20502 -0.30829 -0.42118 -0.109 -0.13403 -0.32563 -0.47355 0.24671 -0.27158 0.53683 0.27091 -0.0022535 0.37421 -0.39308 -0.22537 -0.098659 -0.59937 0.088209 -0.36769 -0.32155 -0.29982 -0.24855 0.46571 0.0045046 0.23265 0.16371 0.19413 -0.19323 -0.2297 -0.41401 -0.16557 -0.11675 -0.15305 0.18206 0.29574 -0.01901 -0.25419 -0.13949 -0.16869 0.25863 -0.10846 0.83246 -0.037923 1.0121 -0.014892 0.57811 -0.23952 0.54073 -0.60574 0.054653 -0.081762 -0.14319 -0.022057 -0.53068 0.41692 0.16832 -0.31268 -0.59018 -0.33034 -0.58567 0.58547 -0.21931
listing -0.63652 -0.20276 -0.20969 -0.31625 -0.90904 0.26687 -0.095896 -0.23112 -0.51835 -0.48517 -0.56261 -0.18951 0.17086 -0.020756 -0.052179 -0.36968 0.11114 -0.4541 0.36753 -0.065559 0.34721 0.59003 0.1175 0.038341 0.052351 -0.50135 0.47507 -0.28138 0.2447 -0.078152 -0.33885 0.14155 -0.64167 0.084481 -0.022393 -0.24722 0.23073 -0.40296 0.35744 -0.25566 -0.21313 0.065668 0.094588 -0.17093 0.48723 -0.3076 0.070804 0.2187 0.44036 0.021212 0.17511 0.351 -0.20088 0.17445 -0.20662 -0.037194 -0.23226 -0.03026 -0.20937 0.27884 0.2292 -0.55366 0.32192 0.17105 -0.026404 -0.46024 -0.0096163 -0.34198 -0.35688 -0.71163 -0.096924 -0.09206 -0.30875 0.045006 -0.054204 -0.0054328 0.18232 0.1504 0.23963 0.69912 0.35721 0.21498 0.13947 0.15629 0.052125 0.46458 -0.25832 0.023136 0.36691 -0.19718 -0.27937 -0.43728 0.12851 0.24518 0.011923 -0.23317 0.032044 -0.13394 -0.19919 -0.24812
chemistry -0.19402 -0.37676 0.30731 -0.049035 0.88385 -0.11872 0.11785 -0.22492 -0.2249 -0.0073355 -0.23765 0.20531 -0.11922 -0.28968 0.12383 0.18411 -0.12798 -0.24212 0.30102 -0.23653 -0.25314 -0.47369 -0.58403 0.11481 -0.09813 -0.65812 0.51752 -0.49255 -0.34298 0.15603 0.074269 0.096376 -0.20962 -0.21151 -0.41449 -0.17038 -0.505 -0.084215 0.26279 -0.16552 -0.3252 0.21315 -0.13392 -0.50803 0.53957 0.15166 0.51927 0.58701 -0.469 0.41145 0.48771 0.079844 0.08156 0.15642 -0.12389 0.37046 0.15465 -0.66162 0.28436 0.40582 0.66085 -0.23651 -0.047921 -0.40573 0.35828 0.025425 -0.70677 0.17285 -0.50507 0.11837 0.25932 0.052591 0.3791 -0.53862 -0.28718 -0.14227 -0.095639 -0.28706 -0.35272 -0.12131 0.21196 -0.34067 -0.082822 -0.36028 0.097138 0.41013 -0.43005 -0.28341 0.73007 0.097059 -0.41605 -0.062177 0.59304 0.33938 0.19008 0.22229 -0.45088 -0.36734 0.3529 0.13484
seafood -0.20473 -0.39311 -0.31735 0.46271 0.42784 0.20937 -0.40036 -0.66751 0.032358 -0.59978 -0.62448 0.94983 0.010702 -0.15264 -0.15646 -0.0069151 0.12191 -0.20226 -0.53524 -0.3194 -0.15849 -0.30348 -0.082957 0.47109 -2.2319E-4 -0.32263 0.18991 -0.39035 0.063807 -0.25963 0.044818 0.44437 -0.37901 0.29546 -0.41017 -0.33217 0.32998 0.26446 0.28852 -0.26504 0.097116 0.25493 0.66645 -0.051102 0.71936 0.54509 0.70459 0.19077 0.19987 -0.21735 0.34456 0.26868 -0.0076686 -0.022312 -0.33834 0.44464 -0.068468 0.20414 0.024567 0.46585 0.69004 0.18908 0.28738 -0.01655 0.29543 -0.022011 -0.5934 -0.58426 -0.45167 -0.026136 -0.0010137 -0.14876 -0.53453 -9.4955E-4 -0.13951 0.093176 0.3021 0.2052 0.53213 -0.37898 0.36582 0.1287 -0.31855 0.49671 0.22408 0.58333 -0.54086 0.56816 0.56023 0.35058 -0.58737 -0.0089389 -0.14875 0.15394 -0.0093501 -0.75652 -0.3729 -0.039441 0.15132 0.45298
CD -0.69274 0.53952 -0.39766 -0.46519 0.30612 0.64112 -0.2683 0.063206 0.0047122 0.07443 -0.082364 -0.09759 0.1645 -0.3307 -0.56471 -1.6774 -0.11427 -0.851 0.074769 -0.52717 0.057365 0.15818 0.0075888 0.10072 0.34237 -0.47144 0.21397 -0.3086 0.40469 0.82436 0.34681 0.17181 -0.06186 0.11021 -0.30108 -0.82087 0.073415 -0.040921 -0.43986 -0.40791 -0.13898 0.025171 0.098015 -0.05821 -0.054063 -0.4459 0.019322 0.21527 -0.040795 0.42939 0.10647 -0.28949 -0.040642 0.12785 0.18204 0.22572 0.15177 -0.60343 -0.41666 0.13545 0.37285 0.26462 0.060368 0.68802 -0.026601 -0.35637 -0.11745 0.40392 -0.046515 -0.4163 -0.37031 -0.35786 -0.054271 0.75303 -0.51393 0.081586 -0.17274 -0.30037 -0.11228 0.52538 0.68192 -0.76029 0.50781 0.52527 0.36976 0.28667 -0.017012 -0.054486 0.35902 0.075161 -0.28784 0.28541 0.25203 0.13616 0.061099 -0.10179 -0.23242 0.15628 -0.10437 -0.30132
mind -0.016818 0.074993 0.39326 -0.17646 -0.27034 0.10197 0.044932 -0.0079661 -0.14799 -0.065755 -0.29101 -0.10966 -0.34447 -0.22002 0.024242 -0.25467 0.62826 -0.55557 -0.18039 0.1615 0.11937 -0.25204 0.11282 0.2384 0.1358 0.16127 0.40732 -0.037491 -0.064418 0.38788 0.24321 -0.31821 0.2033 -0.16671 -0.59193 -0.47271 -0.31267 0.0062507 0.053987 -0.090985 -0.14697 -0.3169 0.42415 -0.051972 0.36884 0.3602 -0.16781 0.57734 0.049427 0.23535 0.37207 0.038336 -0.14524 0.19767 -0.22503 0.19533 0.069268 -0.094614 0.045463 0.27888 0.12025 -0.28261 0.74797 0.40761 -0.012506 -0.19286 -0.39184 -0.0019123 -0.45109 -0.090843 -0.22113 -0.014753 0.63855 -0.080365 -0.031225 -0.1814 0.099128 0.17126 0.37438 -0.098239 0.43587 -0.26694 0.35467 0.13652 0.11277 0.31729 0.091114 -0.37996 0.53263 -0.18132 -0.08282 -0.39522 0.21629 0.27261 0.26929 -0.19485 -0.1808 0.1257 -0.15573 -0.13219
sex 0.15946 0.43646 -0.54163 -0.28786 -0.18211 -0.1418 0.015225 0.069362 0.075476 -0.11716 -0.30109 0.33959 -0.34132 0.40743 -0.49852 -0.70557 0.03516 -0.51058 -0.69067 -0.28333 -0.24991 -0.39044 -0.25887 0.21108 0.074735 0.4708 0.69417 0.33421 -0.18078 -0.086845 0.073846 -0.18381 -0.61226 0.051076 -0.28115 0.19543 -0.19647 0.073562 0.25761 -0.011999 -0.77625 0.27099 0.22548 -0.37106 0.059446 0.41008 0.24914 0.63969 -0.099208 0.097513 0.07078 0.34858 -0.48841 -0.019647 -0.73187 0.35232 0.12812 -0.21957 -0.28209 -0.0384 0.47014 -0.18097 -0.095124 -0.33372 0.59983 -0.15136 -0.55105 0.02142 -0.77899 -0.25575 0.26664 0.23601 0.38417 0.10138 -0.12142 0.46585 -0.39327 0.42896 0.48794 0.43392 0.36121 -0.67226 0.299 0.0068017 0.0014264 0.27581 0.41526 -0.70131 0.44884 0.0050743 0.13489 0.24478 0.050747 0.63713 -0.43117 0.11276 -0.36057 -0.42187 -0.29591 -0.54304
food -0.50098 0.084512 -0.21909 0.10731 0.40733 -0.15726 -0.22237 -0.56339 0.20147 -0.21265 -0.97549 0.83157 0.21412 -0.37339 0.34063 -0.35945 0.16889 -0.19419 -0.68137 -0.44133 0.18929 -0.17003 -0.020296 0.23072 0.30585 -0.1389 0.1174 -0.041651 -0.24344 -0.44886 -0.25056 0.43726 0.23692 0.52589 -0.38949 -0.088348 0.44099 0.49441 -0.030384 -0.3091 0.23689 0.041953 0.5465 0.019604 0.4394 0.26137 0.41131 0.323 -0.041679 0.034509 0.32215 0.044275 -0.041767 0.17598 0.044059 0.52235 0.4845 -0.12452 0.2379 0.42043 0.64005 -0.0013288 0.48449 -0.14952 0.35746 0.2797 -0.80059 -0.21951 -0.53179 0.20841 -0.12673 0.17737 -0.16683 0.15695 0.015837 0.58661 0.067235 0.24096 -0.07869 -0.01643 0.33641 -0.17415 -0.40745 0.46811 0.37764 0.50042 -0.51124 -0.0544 0.20958 0.31798 0.022221 -0.18684 -0.13514 -0.098952 0.22879 -0.37159 0.049043 -0.26896 -0.032883 0.30849
precedent 0.16697 0.37727 0.089025 -0.45576 -0.30578 0.2095 0.040454 -0.36941 0.20618 -0.33204 -0.0011897 -0.26481 0.13018 0.28728 0.23757 -0.074885 -0.096964 -0.45057 -0.13522 0.15855 -0.25039 0.40021 -0.4036 -0.04246 0.13541 0.37002 0.1461 -0.40325 0.032085 -0.032499 0.22498 0.045965 -0.0020023 -0.45765 -0.70593 -0.47346 -0.18854 -0.24603 0.18052 -0.10014 -0.30884 0.14574 -0.11727 0.043105 -0.11909 -0.14521 0.15781 0.6165 -0.05225 0.045075 0.84222 -0.22029 -0.49627 0.3852 -0.19539 -0.0042699 -0.22456 -0.34033 0.35815 0.12668 0.68457 -0.21588 0.42834 0.030962 -0.010177 -0.12363 0.063601 -0.53552 -0.37636 -0.15271 -0.094181 0.24128 0.64832 -0.081582 0.0085574 0.64732 -0.29628 0.35615 0.14592 0.056681 -0.063229 0.20289 -0.11772 -0.16048 -0.1587 0.033499 0.22715 0.34751 0.19532 -0.073494 -0.061085 -0.51689 0.14439 -0.12595 0.47744 -0.42109 -0.16091 -0.23665 0.13135 -0.098422
series -0.21718 0.16447 -0.096769 0.21126 -0.30583 -0.065756 -0.15072 -0.010847 -0.49999 -0.1431 0.51411 1.1621E-4 0.15596 -0.039728 0.076908 -0.4757 0.25783 -0.51416 -0.47818 0.13643 -0.56184 -0.27873 -0.19157 0.51326 -0.097057 -0.20348 -0.013859 0.11696 0.30423 -0.02443 -0.17688 -0.046909 0.05645 -0.64705 -0.45847 -0.6323 -0.37155 0.36417 0.14205 -0.14592 0.13628 0.68334 -0.060618 0.25951 0.015362 -0.072638 0.35247 0.65236 0.56601 -0.017423 0.56524 -0.42347 -0.25704 -0.1002 -0.30375 0.021818 0.34366 -0.11804 0.18284 -0.10009 0.43081 -0.38488 0.25624 0.032382 0.26845 -0.54806 -0.051058 0.17433 0.19425 -1.1151 0.11871 0.32821 0.16336 0.19389 -0.59579 0.22708 -0.39059 0.026306 -0.26652 0.048568 0.14902 0.33364 0.1073 0.14177 -0.037209 0.094935 0.10285 -0.037004 -0.054309 -0.53347 -0.20815 -0.031627 -0.23627 -0.2251 -0.0526 0.22196 -0.25176 -0.3196 -0.15673 -0.43429
kilometer -0.11111 -0.8127 0.14844 0.27822 -0.16562 -0.18384 0.12011 -0.17843 0.24097 -0.32122 -0.83312 -0.33314 -0.24608 0.44935 -0.36634 -0.85533 -0.073316 -0.098717 -0.26669 -0.66391 0.15589 -0.66448 -0.26913 -0.16218 0.027677 -0.44201 1.3904 0.049576 -0.099547 0.7519 -0.51579 0.78184 0.24284 -0.1803 -0.56329 -0.88688 0.22111 0.091365 0.92917 0.39257 -0.44884 -0.49105 0.030847 0.048346 0.029091 0.038255 0.14943 0.18944 0.33213 -1.1136 0.19262 -0.25508 0.77798 0.38148 -0.35224 -0.076642 -0.23348 0.23999 -0.12395 -0.50987 0.81315 1.1156 0.4901 -0.52959 0.60221 -0.29784 -0.42224 1.2486 0.88156 -0.32794 0.33048 -0.36024 0.21014 -0.084545 0.032384 0.36629 0.58092 0.054648 0.46376 0.029186 0.25647 0.16131 0.15955 -0.64788 -0.15792 -0.60319 -0.27635 1.0139 0.82993 0.15212 0.021807 -0.017244 0.037297 0.060775 -0.030408 0.050119 -0.29472 0.1596 0.34858 -0.66892
grocery -0.39791 0.18437 0.057646 0.20815 -0.065804 0.054543 -0.24668 -0.25245 0.29558 -0.71783 -0.67455 0.4746 -0.32676 -0.16362 -0.053004 -0.71824 0.20546 -0.39352 -0.90259 -0.70409 0.11728 -0.31254 0.047153 0.40705 0.070554 -0.74298 0.4815 0.04107 0.075182 -0.30228 0.042866 0.57315 0.42299 0.26758 0.010216 -0.15942 0.63359 0.30837 0.03749 -0.64605 -0.019294 0.48364 0.4504 -0.18888 0.50204 0.58362 0.12942 0.31842 -0.23003 -0.045572 -0.14082 0.55902 -0.26057 0.27713 0.10082 0.76874 0.18813 0.15925 -0.14189 0.25361 0.19331 -0.48721 0.39432 -0.17284 0.06149 0.25494 -0.080332 -0.25176 -0.14071 -0.3576 0.17319 -0.36637 -0.10372 0.27039 0.19491 0.013734 0.14556 0.4079 -0.017491 0.25561 0.23023 -0.34553 -0.20747 0.86449 0.4204 0.25357 -1.0126 0.23745 0.69559 0.38444 -0.20043 -0.093705 -0.055224 -0.12012 -0.14019 -0.31588 -0.20073 -0.26497 0.174 0.51564
wizard -0.26337 0.12269 -0.14135 0.35229 0.19287 0.79426 -0.017746 0.18404 -0.27807 -0.12558 0.42332 0.35289 0.30134 0.21203 0.10759 -0.62053 -0.15563 -0.29984 0.064072 0.080323 -0.59859 -0.60568 0.13731 -0.22599 0.054769 -0.65157 0.049821 0.24713 -0.0091908 0.53688 0.46888 -0.32737 -0.23585 -0.4207 -0.58644 -0.14528 -0.2402 0.28809 0.12559 -0.10812 -0.35161 0.2403 0.14508 -0.17151 -0.10527 -0.36577 0.15216 0.27372 -0.13879 0.50539 0.68567 -0.25882 0.11896 0.27435 0.38484 0.062618 0.040983 0.076142 0.14231 0.27854 -0.053214 -0.22255 0.24234 0.33177 0.64059 0.052193 -0.38868 -0.49131 -0.53507 0.041589 0.096379 0.1201 0.16843 0.096307 -0.49204 0.20046 0.16305 0.031625 -0.19079 0.245 0.44923 -0.48602 0.43791 0.39356 -0.30941 -0.094883 -0.03737 -0.080796 0.48944 -0.24693 -0.22334 -0.59124 -0.0040219 0.56742 0.18626 0.044092 -0.96851 -0.077333 0.48193 -0.21201
information -0.018739 -0.061268 0.21916 0.18405 -0.098834 0.44941 0.17935 0.048076 -0.18344 -0.256 -0.33188 0.24276 -0.068554 0.10797 0.12843 -0.23292 0.030217 -0.21227 0.0039721 0.28228 0.19093 -0.042437 -0.043032 0.11334 0.070365 -0.32997 0.62063 0.038011 0.26543 -0.29654 -0.40208 0.46584 0.12737 0.70518 -0.5047 -0.55664 0.47336 -0.23875 0.66098 0.030694 -0.13868 0.42195 0.42598 0.23865 0.50873 0.035478 0.041996 0.56344 -0.08307 0.17825 -0.056504 -0.14643 0.030006 0.69976 -0.23275 -0.20585 -0.14486 -0.36068 0.089606 0.20618 0.81012 0.036054 0.2707 0.35595 -0.25075 0.34793 -0.16631 0.029721 -0.18891 -0.59516 0.19883 -0.045619 -0.041507 0.50271 -0.0476 -0.21319 -0.87625 -0.093064 0.53055 0.46773 -0.13921 -0.62983 0.082739 -0.19399 0.43503 0.38619 -0.49007 -0.32202 0.48622 0.41808 -0.11894 -0.81679 0.16579 0.51421 0.20026 -0.19011 0.79774 -0.29817 -0.080687 -0.23401
Israel -0.077643 0.93515 -0.2112 -0.14171 0.22638 -0.16125 -0.39597 -0.70709 0.14762 -0.077505 -0.49893 -0.28173 -0.36856 -0.6664 -0.20585 0.045625 0.046395 -0.40249 -0.20564 -0.58995 0.22232 0.0144 -0.16739 -0.02575 0.067143 0.13094 0.45303 -0.3303 -1.1999E-4 -0.023255 0.29712 -0.13666 -0.79398 -0.060954 -0.58801 -1.0035 -0.090085 0.2015 -0.070312 0.36043 -0.17262 0.61873 0.26346 -0.43409 0.20072 0.52434 0.05292 0.99204 0.20405 0.36136 -0.47079 -0.47151 -0.11716 0.33798 -0.20694 -0.51387 0.44101 1.0779 0.21738 -0.29854 0.69223 -0.21761 0.30966 -0.26947 -0.29282 -0.13635 -0.57094 -0.25761 -0.28717 -0.43082 -0.27256 0.6977 0.36212 0.30378 0.067101 0.41304 -0.34672 -0.11612 0.55614 0.15792 -0.43162 -0.3277 0.20847 -0.20454 0.24008 0.14052 0.41744 0.62331 -0.47038 -0.72693 -0.02708 0.17601 0.69541 -0.051769 -0.13854 -0.22615 -0.16621 -0.23869 0.19198 -0.42568
brandy 0.17509 -0.13774 0.15224 0.16067 0.14064 0.11233 -0.31228 -0.14378 0.22351 -0.44079 -0.17458 0.72434 -0.14971 0.43195 -0.30598 -0.42059 0.28481 -0.36201 -0.5917 -0.22256 0.27413 0.032374 -0.34103 0.11792 0.084892 -0.37901 0.58411 0.090763 -0.2279 0.32823 0.08934 0.13151 0.084482 -0.21787 0.047567 0.026495 0.35111 0.039724 0.010342 -0.10835 -0.22909 0.251 0.24164 -0.03148 0.13988 0.46722 0.10823 0.1659 -0.066805 0.02526 0.16281 0.40729 0.089151 0.055834 0.1713 0.189 0.51308 0.0086702 -0.027945 0.44363 0.43356 -0.3818 0.2286 0.50589 -0.059997 -0.097599 -0.43137 -0.17723 -0.41231 -0.37274 -0.12505 -0.2292 -0.05344 0.22648 -0.35754 5.028E-4 0.27105 0.16962 -0.30244 -0.41703 0.28618 -0.31865 -0.20002 0.60619 0.31988 0.34634 0.11764 0.026796 0.63633 -0.30522 -0.30501 -0.23879 0.21632 -0.016062 0.022761 -0.48635 -0.25928 0.12425 0.39504 0.28719
interview -0.24319 0.076179 0.22819 -0.15722 -0.42706 0.40033 0.49258 0.029049 -0.03798 0.062514 -0.62955 -0.30995 -0.17795 0.41311 0.32332 -0.41749 -0.18559 -0.58806 0.22391 0.018184 0.31072 0.08337 -0.23601 0.030727 0.22046 0.061719 0.54436 0.16722 0.16101 0.070858 -0.1228 -0.023238 0.21863 -0.13265 -0.70338 -0.41044 -0.35363 0.56618 -0.16159 -0.57282 0.034085 0.20033 0.044064 -0.2676 -0.3346 -0.012375 0.31421 -0.23276 0.77297 -0.23784 0.28434 -0.56472 -0.38615 -0.2573 -0.17167 -0.023823 -0.046712 0.31157 -0.44835 0.24055 0.42878 -0.80628 0.074805 0.048831 0.15416 -0.065855 -0.14766 0.21668 -0.12385 -0.46147 0.18451 -0.02308 0.42058 0.27648 -0.55992 -0.47162 0.012316 0.35826 -0.040192 0.14467 -0.57107 -0.59247 0.059794 -0.2121 0.13767 0.46503 -0.072914 -0.053598 0.3916 -0.73218 0.24482 -0.17677 0.16825 0.30448 -0.074871 -0.43674 -0.014335 -0.33948 0.45995 -0.35659
prominence -0.091394 0.056471 0.11546 0.21471 0.35335 0.33137 -0.2792 -0.26899 -0.25674 -0.31264 -0.11853 0.14341 -0.054885 -0.16058 -0.0358 -0.20378 0.13298 -0.33632 0.20432 -0.17981 -0.44472 0.3098 -0.29161 0.08985 -0.069516 -0.06496 0.6309 0.42036 -0.024024 -0.15943 -0.10246 0.21284 0.052252 -0.072999 -0.26103 -0.30087 -0.10208 -0.27676 0.092577 -0.26542 -0.057933 0.017817 -0.21214 -0.27894 -0.072244 -0.13966 -0.022699 0.32456 -0.44217 0.022532 0.17722 0.067858 -0.44175 0.35256 0.14825 -0.23522 -0.044584 -0.23019 0.084887 0.092999 0.26651 -0.15588 -0.019227 -0.3924 0.19363 -0.1637 -0.37499 -0.13792 -0.0069404 -0.80925 0.072418 0.32721 0.60522 -0.20713 -0.56024 -0.15174 0.20971 0.49747 -0.067056 -0.041254 0.17163 -0.12695 0.16024 0.61131 0.11695 0.30946 -0.23216 0.11928 0.11341 -0.48095 0.35744 -0.26693 0.021796 0.58021 0.028226 0.1258 0.25874 -0.3287 0.017008 0.032912
bed 0.037223 -0.31326 0.2496 0.22222 -0.0338 -0.27892 0.051362 -0.032367 0.38855 0.33795 -0.52518 -0.17925 -0.077816 -0.31159 0.096147 -0.5688 -0.16779 -0.66747 -0.51105 -0.48875 0.1644 -0.14038 -0.084521 0.15085 0.27059 -0.068058 0.37425 0.37077 -0.28529 0.58633 0.098231 0.48237 0.44283 0.24102 -0.63986 0.059318 0.50292 0.54085 0.024341 -0.52224 0.35924 -0.13222 0.48785 -0.33456 0.072413 0.061202 0.051968 0.32546 0.30399 -0.04695 -0.15444 0.37349 0.36412 9.8729E-4 -0.38844 0.43773 -0.097726 -0.24249 0.13576 0.2833 0.12297 -0.41904 0.36044 0.19986 0.0074991 -0.16959 -0.17283 -0.47431 -0.28257 0.16301 0.071556 0.11573 0.33315 0.35355 -0.4846 0.24962 -0.096974 0.60686 0.36728 0.026904 0.70004 -0.62659 0.68144 -0.05159 -0.17115 0.077462 -0.18084 -0.031378 0.08397 -0.28939 0.27854 0.12746 0.13583 -0.099916 -0.53276 -0.20554 -0.6307 0.19719 0.14976 -0.18045
furnace 0.060289 -0.08543 0.36594 0.077249 0.24659 -0.28377 -0.54038 -0.55475 0.064883 0.25427 -0.42273 0.0080488 0.48841 0.15408 0.16333 -0.95037 0.1333 -0.25231 -0.55017 -0.87025 0.13643 -0.60722 -0.079515 -0.0061289 0.0055943 -0.23291 0.18948 0.08015 -0.051946 -0.11926 -0.15229 0.49989 -0.14165 0.27929 -0.41841 0.14387 0.35482 -0.17 0.29505 -0.41499 -0.043444 -0.056029 0.35624 -0.40625 0.62814 0.30878 0.2674 0.59629 -0.063454 -0.031758 0.21176 -0.062343 0.27729 -0.17116 -0.080031 0.25319 0.50252 -0.11346 0.043975 0.19847 0.65272 -0.05857 0.23564 0.40976 -0.43621 -0.59984 -0.47959 -0.11827 0.24538 -0.26782 -0.087481 0.17667 -0.15485 0.098062 -0.49561 0.56469 0.072104 0.046195 0.094633 -0.069355 0.48777 0.13528 0.17514 -0.12864 -0.028843 0.32693 -0.30607 0.15019 0.29334 0.42127 0.09263 -0.22408 -0.15746 -0.57927 0.31605 0.074861 -0.15494 0.70673 0.3494 0.093103
evidence 0.28185 0.37155 0.088904 -0.011897 -0.11052 0.013769 0.14902 -0.33494 0.23962 0.26659 -0.46034 -0.1941 0.59935 -0.19493 0.013734 -0.33764 -0.56937 0.060027 -0.40674 -0.013488 -0.1304 -0.095881 -0.21081 -0.090833 0.034616 -0.18008 0.89764 -0.024623 -0.26779 -0.5452 -0.25989 0.29622 -0.087627 -0.32534 -0.67441 -0.56857 -0.33648 -0.074207 -0.012599 -0.14713 0.26702 -0.28 0.28779 0.39733 0.39554 0.26302 0.42312 0.25079 -0.12813 0.16715 0.39947 0.084079 -0.085349 0.88889 -0.30101 -0.29206 -0.44146 -0.33906 0.54607 0.31726 0.37524 -0.20873 0.36028 -0.18954 0.20322 -0.025777 -0.054669 -0.014074 -0.53764 0.075801 0.0026714 0.30403 0.30771 -0.084224 -0.22668 0.039963 -0.99716 0.23132 -0.056009 0.39566 -0.27647 -0.48378 -0.074597 -0.0099432 -0.16968 0.50967 0.13128 -0.28563 0.51081 -0.012334 0.038771 -0.54143 -0.10726 0.50218 0.50227 -0.39472 -0.0029689 -0.14702 0.32262 0.0085764
sprint 0.31731 -0.052116 0.1212 0.20593 -0.24407 -0.43754 0.30367 -0.75941 -0.20133 0.061239 -0.73208 0.03839 0.31171 0.29924 -0.1155 -0.42933 0.12067 -0.59166 0.017444 0.41333 -0.12997 -0.47899 -0.62421 -0.14969 0.12059 -0.638 0.68436 -0.23154 0.05211 0.34219 -0.23983 0.43073 -0.14997 -1.1264 -0.18104 0.038337 -0.56647 -0.023034 0.011599 0.029018 -0.58063 -0.33211 -0.54018 0.21098 -0.07553 0.10034 0.5094 0.09697 0.25665 0.084648 0.32899 0.3418 0.1605 0.016509 0.19264 0.080317 0.1429 -0.40942 -0.4621 -0.025013 0.14402 0.34064 0.70411 -0.05658 0.50802 -0.70836 -0.28861 -0.022591 -0.16274 -0.40276 0.15889 -0.17498 0.46096 -0.35149 -0.72348 -0.15783 0.73196 0.37212 0.070579 0.10764 -0.33859 0.15419 -0.093095 0.24109 -0.24199 -0.078265 -0.28598 0.16314 0.70438 -0.013266 -0.17944 -0.64418 0.418 -0.20839 -0.059851 -0.77288 0.059392 -0.2187 -0.27235 0.28739
emergency -0.58637 -0.32626 0.14634 -0.11687 0.15193 -0.083511 -0.048763 0.30666 0.42446 0.099692 -0.88064 -0.37973 0.29009 -0.1725 0.42162 -0.038313 0.34235 -0.20605 -0.59132 0.051534 0.26713 0.033903 -0.17465 0.070016 0.54739 0.16955 0.1973 0.2903 0.47163 0.081465 -0.34205 0.32971 0.060062 0.44294 -0.24596 -0.25983 0.57245 0.53741 -0.14747 0.14595 0.23896 -0.096412 0.87805 0.48049 0.011026 -0.65611 0.061126 0.18794 0.27967 0.20318 0.10165 -0.32258 -0.46579 -0.44568 -0.24847 -0.24006 0.38264 -0.16003 0.15767 0.54929 0.72698 -0.21557 -0.097446 0.39711 0.14292 0.22159 -0.31305 0.23847 -0.4684 -0.38805 -0.47573 0.44406 0.51314 -0.083004 0.41813 0.80603 -0.048712 0.80184 0.16973 0.45936 -0.022646 -0.23467 0.50987 -0.24537 -0.11313 -0.10432 -0.50772 0.4302 -0.19158 0.086229 -0.11808 -0.13976 0.15071 -0.28674 0.24492 0.033359 -0.05047 -0.0070884 0.24794 -0.2102
Jackson -0.53127 -0.1272 -0.33348 -0.086227 0.19264 0.06971 0.10127 -0.28448 0.33164 0.28277 -0.59934 0.33698 -0.095277 0.04014 -0.23778 -0.63086 0.22031 -1.0017 -0.088541 -0.45149 0.17236 0.58525 -0.010373 -0.42642 -0.039977 -0.27538 0.58775 -0.24671 0.37447 0.35696 0.22163 0.052326 0.077032 -0.50153 -0.64332 -0.056478 0.26771 0.020961 -0.14562 0.15348 0.22571 0.42021 -0.30616 0.28258 0.35892 -0.66987 0.29527 0.45836 0.13457 0.63392 -0.057938 -0.27414 -0.31699 0.44832 0.12197 -0.047313 -0.0088988 -0.36947 0.015192 0.096576 -0.3081 0.047114 -0.54978 0.037225 0.37103 -0.37878 -0.49852 -0.020919 -0.4043 -0.53652 0.092118 0.49088 0.84256 0.18898 -0.30085 -0.039681 0.070059 0.1223 0.10646 -0.31831 -0.78495 -0.84727 0.19617 0.0044776 -0.19629 -0.090287 -7.0895E-4 -0.24328 -0.33319 -0.38624 -0.32193 -0.3303 -0.42784 -0.014069 0.30514 0.26242 -0.64238 -0.21156 0.38457 -0.062483
institution -0.64321 -0.15618 -0.082617 -0.33582 0.14256 0.5131 0.11939 -0.036628 0.12268 -0.33732 -0.51259 0.31226 0.19053 0.26445 0.23924 -0.10397 -0.06597 -0.29112 0.12519 -0.057538 -0.38315 0.22014 -0.17431 -0.10666 -0.17349 -0.23267 0.47741 0.022164 -0.59859 0.23786 0.24215 0.015565 -0.085936 0.11069 -0.18749 -0.033719 -0.21035 -0.23515 -0.029296 -0.11107 -0.15226 0.33743 0.72564 -0.16832 0.04371 -0.15725 -0.16541 0.25152 -0.46934 0.30277 0.43239 -0.30061 -0.72645 0.17349 -0.34449 0.10922 0.32523 0.081235 -0.22473 0.037091 0.41901 0.018891 0.22508 0.16971 0.2228 0.25524 0.1285 -0.05441 -0.31664 -0.065881 -0.0042533 -0.20052 0.74275 0.092057 0.16846 0.86077 -0.41682 0.51484 0.14745 0.068621 0.29484 0.27457 0.34899 -0.23966 -0.10911 0.10144 -0.066923 0.15132 0.22461 0.0088837 0.064661 -0.53362 0.5418 0.13674 -0.16473 0.313 -0.027528 -0.43706 0.25069 0.015473
bird 0.23617 -0.54351 0.40997 0.17903 -0.072171 0.051915 -0.5088 -0.1592 -0.025073 0.11371 -0.32533 0.18876 -0.20177 0.030491 -0.34463 0.28514 0.21267 -0.551 -0.43927 0.064958 -0.35152 -0.77304 -0.12028 0.20472 0.052685 -0.10601 0.26815 0.40052 0.27286 0.25282 -0.12047 0.64005 -1.0345 -0.14993 -0.79387 -0.18139 -0.20047 0.042434 -0.22671 -0.22482 -0.1164 0.64041 0.66002 -0.1121 0.62219 -0.023455 0.14537 0.25395 0.31196 -0.31239 -0.046336 -0.38594 0.28192 0.36142 -0.37545 -0.24888 -0.14306 0.061543 0.39768 0.69183 0.43384 -0.21677 0.95332 0.29629 0.5685 -0.55834 -0.39082 -0.022046 -0.26928 0.51408 -0.17887 0.23738 -0.24461 -0.70119 -0.3356 -0.17843 0.19619 0.98086 0.39016 0.10935 0.5974 -0.39258 -0.026116 0.50551 0.19128 0.0114 -0.13058 0.076947 0.42253 0.44711 -0.34793 0.070704 -0.15428 0.41005 -0.12524 0.23389 -0.51648 -0.023037 -0.27304 0.41401
Brazil -0.43586 0.095275 -0.074614 -0.62226 0.20774 -0.19945 -0.82371 -0.27873 -0.23136 -0.10432 -0.36757 -0.095353 -0.16169 0.063797 0.41824 -0.59681 0.039009 -0.028284 -0.18128 -0.14356 -0.017404 0.65425 -0.19772 0.057513 0.40834 0.11939 -0.0017883 -0.027259 -0.3312 0.18931 -0.56657 0.84901 -0.054654 -0.16311 -0.055602 0.050502 -0.50058 0.17496 -0.15694 0.042596 -0.55171 -0.22691 0.13065 0.43629 -0.29169 0.028534 0.64786 0.28484 -0.15074 0.10965 0.1441 -0.14171 -0.36662 0.068179 -0.28172 -0.5836 0.13716 0.25609 -0.46324 0.097396 0.88034 0.36121 0.18045 -0.10169 0.32852 -0.27593 -0.48433 0.11245 -0.33109 -0.3659 0.016357 -0.15457 0.15392 0.13128 -0.78223 -0.56633 0.48516 0.45644 0.48573 -0.0044919 -0.50732 -0.33824 -0.27397 0.029076 0.081995 0.37671 -0.1377 0.90966 -0.44119 -0.161 0.16423 -0.25516 0.47062 0.42714 -0.033494 -0.12604 -0.55126 0.17194 -0.13184 0.27301
warning -0.12161 0.29825 0.17892 0.14535 -0.06523 0.4459 0.22948 -0.60858 0.16515 0.040731 -0.26457 -0.1764 0.15696 0.51486 0.23544 -0.28122 0.089222 -0.59922 -0.5463 -0.053209 0.053882 0.23647 0.18384 0.077671 0.034808 -0.18554 0.067568 0.2932 0.18022 -0.42547 0.27091 0.05182 -0.0037051 -0.21792 -0.61462 -0.63052 0.6499 0.13434 0.019298 0.10466 -0.24699 0.42362 0.40871 0.066777 -0.10179 -0.29745 0.16847 -0.26638 0.18182 -0.056218 0.42151 -0.28756 -0.20768 0.21038 -0.14567 -0.70677 -0.24225 -0.0038216 0.41963 -0.15882 0.61788 -0.089039 0.014739 0.32016 -0.19999 -0.070578 -7.5915E-4 -0.36256 -0.26285 -0.12414 -0.84799 0.34097 0.011718 -0.46301 -0.12289 -0.13507 0.054628 0.19214 0.066881 0.79893 0.53261 0.22218 -0.3809 -0.011214 0.079654 0.43491 -0.45794 0.34271 0.67908 0.067299 -0.34908 0.13991 0.24643 -0.093793 0.34694 -0.41425 0.06685 0.14584 0.20027 -0.39274
implement 0.16459 -0.17149 -0.12389 -0.30359 -0.047495 0.0039592 0.072842 -0.21412 0.27437 -0.18401 -0.085243 -0.0067433 -0.14834 -0.2463 0.48455 0.014081 -0.18223 -0.049242 0.29501 0.069617 0.36977 -0.019294 0.33855 0.11004 0.60128 0.20577 0.22443 -0.57214 -0.13747 0.14578 -0.065257 0.14725 -0.0040021 0.23135 -0.19969 -0.26483 -0.087877 0.22125 0.29619 -0.011405 -0.22625 -0.19009 0.42286 -0.021723 0.3976 -0.0030556 -0.036123 0.30225 -0.31737 0.01739 0.80854 -0.29754 -0.35674 0.11912 -0.53839 -0.0073229 0.31866 -0.10017 -0.071064 0.0017272 0.84161 -0.52834 0.059232 0.72845 -0.028767 0.11106 -0.16015 0.34452 -0.34639 -0.4692 -0.043077 0.039738 0.19317 0.051836 -0.24941 0.27015 0.21533 0.66659 -0.19997 0.92114 0.21553 0.57525 0.29055 0.23619 0.014474 -0.079658 0.087653 0.43241 0.29427 -0.20676 -0.50016 -0.19988 -0.19083 -0.12708 0.20495 -0.28086 0.31937 -0.45433 0.47215 -0.62896
train -0.17615 -0.34437 0.6567 0.0019027 -0.20706 -0.011817 0.050275 -0.28926 -0.21127 0.28705 -0.79965 0.089961 -0.081238 -0.071109 0.45644 -0.29547 0.021015 -0.52051 -0.58025 -0.4302 -0.41778 -0.27815 -0.25806 0.11174 0.2914 0.058227 0.286 0.65771 0.64352 0.27731 0.26186 0.069798 0.19097 -0.013479 -0.28563 -0.53738 0.17062 0.25375 -0.17222 -0.059439 -0.21354 0.16002 0.65706 0.028613 0.40988 0.40079 0.67916 0.028263 -0.83974 -0.44251 -0.24503 0.26679 0.25699 -0.29049 0.18745 -0.071022 0.43309 -0.18461 -0.46892 0.070674 0.5341 -0.010504 0.29293 0.31111 0.24638 -0.10865 -0.046748 0.38563 -0.1727 -0.21361 0.062502 0.10349 0.0041588 0.020752 -0.012295 -0.082581 0.0018692 -0.10024 0.19208 0.40407 -0.11873 0.46561 0.41057 0.033663 -0.64397 -0.43912 -0.26838 0.26079 0.37822 -0.18897 -0.21506 -0.28655 0.53952 0.053897 0.16968 -0.23827 0.20859 -0.45541 0.0069611 -0.25719
area -0.25391 -0.37187 0.69009 -0.15345 -0.39818 -0.10786 0.015225 -0.24058 0.20399 -0.02603 -0.30684 0.07602 -0.021275 -0.048128 -0.24332 -0.46183 -0.28268 -0.37303 -0.40363 -0.16261 -0.2081 0.018708 0.21165 0.22905 0.20444 -0.30899 0.62813 0.10937 0.23887 0.24409 -0.13628 0.44129 0.057934 -0.032981 -0.89367 -0.044135 0.54803 0.20217 -0.18447 -0.06659 -0.012204 -0.15437 0.2875 0.38634 0.039283 0.13385 0.039323 0.15367 -0.41114 -0.26704 0.19701 0.034165 -0.0017405 0.45614 -0.55301 -0.31791 -0.22916 0.27894 -0.14984 0.042215 0.42321 -0.020417 0.14012 -0.0098106 0.29268 -0.14556 0.36 0.12676 -0.006351 -0.34179 -0.060445 0.062826 -0.10342 -0.41697 -0.0067166 0.31052 -0.13498 0.45858 0.22221 -0.086289 -0.15636 0.0079279 0.15532 -0.080459 0.41314 -0.22388 -0.50749 0.25673 0.12631 -0.10176 -0.39183 -0.22608 0.15 -0.18974 0.21314 0.27104 -0.32587 -0.18833 0.084975 0.31192
image 0.47543 0.082239 0.27737 -0.27265 -0.11631 -0.09559 0.16278 0.10357 -0.24667 -0.27013 0.065316 -0.13033 0.3864 0.50933 -0.19261 -0.20101 0.31083 0.06596 -0.30931 0.15226 -0.10977 -0.060053 0.4242 0.24884 -0.06871 -0.38371 0.6074 0.74159 -0.32748 0.10574 0.18516 0.25771 -0.04857 0.42835 -0.47286 -0.57435 -0.15865 -0.19928 -0.039387 -0.41968 -0.34526 0.39801 0.29497 -0.10826 0.17822 -0.10462 0.08907 0.35295 -0.13386 0.066156 0.46698 -0.040479 -0.24626 0.27508 0.2385 -0.47978 0.39961 0.29832 -0.23785 0.20028 0.28005 -0.035915 0.18539 0.44447 0.071793 -0.58909 -0.12088 -0.0039707 -0.19592 -0.11862 0.12502 0.071488 0.48265 0.40065 -0.5962 0.36059 0.22869 0.23337 -0.11569 -0.19594 0.48571 0.0043228 0.0029201 0.11069 0.25646 0.33594 -0.10084 -0.033386 0.60301 -0.041541 -0.35458 -0.039226 0.3643 0.86895 0.40667 -0.26125 -0.05829 -0.39803 0.19443 -0.094565
murder -0.61873 0.29887 0.28058 -0.33327 -0.49593 -0.01587 -0.089666 0.17458 0.097614 0.18616 -0.40198 0.36813 0.26427 0.058161 0.44924 -0.32648 -0.49442 0.21708 -0.60051 -0.27759 -0.20803 -0.57012 -0.49171 0.53981 -0.0092936 0.15958 1.3971 0.14177 0.013917 0.16567 0.13413 -0.11276 -0.11184 -0.1752 -0.38179 0.074935 0.13854 -0.4468 -0.26625 -0.32287 -0.040799 0.4448 -0.63813 0.25441 -0.56438 0.39076 0.16195 0.38336 -0.24376 0.75572 -0.22887 0.47032 0.053008 0.012771 -0.35515 -0.095998 -0.01194 0.34043 -0.076631 0.13247 0.74502 -0.3265 0.24659 -0.49053 0.037782 0.0054279 0.20235 0.46337 -0.35981 -0.20819 0.42823 0.052307 0.67054 0.0042344 -0.43272 0.38005 -0.81416 0.69061 0.25001 0.18998 -0.033355 -0.33094 0.29502 0.48857 -0.7713 0.28576 0.22171 -0.2823 1.0123 -0.11096 -0.48049 -0.27904 -0.18812 0.2097 -0.11834 -0.19224 -0.42639 -0.16724 0.70764 -0.64289
journey -0.09579 -0.51738 -0.012118 -0.41194 -0.2234 -0.24424 0.33432 -0.16413 0.028542 -0.15105 -0.38984 0.0067662 -0.22222 0.1174 0.30801 -0.48676 0.38122 -0.27359 -0.063513 0.15715 -0.11969 -0.13236 -0.32237 0.35656 -0.33513 0.15869 0.6395 0.7065 0.51524 0.71769 -0.13135 0.17007 0.53915 -0.14587 -0.43527 -0.50903 0.26429 0.18973 -0.18121 -0.24204 0.090734 0.196 0.089483 -0.27088 0.20892 0.89153 0.3924 0.47673 0.13758 -0.23067 0.59432 0.14035 0.94144 -0.13085 -0.11665 0.16314 0.18532 0.088958 -0.55337 -0.56175 0.47004 0.33051 0.22912 0.18017 0.10906 0.082549 -0.57896 0.37004 0.094173 -0.26561 0.062107 0.24522 0.15008 0.37596 -0.24763 -0.087263 0.12635 0.41075 0.26811 0.019073 -0.11443 0.32991 0.29127 -0.014718 -0.48547 0.091835 -0.22121 -0.0036875 0.67223 -0.33519 -0.41538 -0.32015 0.13054 0.16298 0.48048 -0.27328 -0.16125 -0.3831 -0.084071 -0.25114
minister 0.18954 -0.25509 0.090376 -0.32709 0.5832 -0.16281 -0.11187 -0.32796 0.70563 0.25274 -0.42585 0.36177 -0.61221 0.1867 0.50226 -0.34108 0.11557 0.2768 0.046843 -0.3121 -0.34443 -0.23948 -0.88529 0.45847 -0.13724 0.0324 0.41585 -0.2965 -0.17858 -0.18146 -0.36635 -0.27705 -0.39139 0.21409 -0.45145 -0.070834 -0.35256 0.31395 0.66958 -0.21313 0.18413 -0.54684 0.38349 0.15726 -0.61947 -0.16084 0.087468 0.47651 0.15874 0.13657 -0.29818 -0.50365 -0.049267 0.29141 -0.21607 -0.52047 -0.0020154 0.52332 -0.3693 0.28229 0.52929 -0.66271 0.12266 -0.36372 0.04339 -0.032233 -0.44668 -0.60473 -0.12859 -0.74504 -0.44507 0.87793 0.53904 0.10353 -0.43526 -0.31492 -0.4577 0.77165 0.33082 0.21901 0.64802 0.2529 -0.012576 0.090753 0.039883 -0.20904 -0.42489 0.27189 -0.22692 -0.28099 0.41887 -0.43803 -0.0074417 -0.072416 -0.18194 -0.296 -0.13588 -0.62126 0.34023 -0.88909
planet -0.19612 -0.35644 0.21433 -0.73894 -0.034931 -0.4597 -0.022823 0.11259 -0.23867 0.31183 -0.30991 -0.13601 0.031451 -0.27641 -0.075973 -0.18006 -0.10731 -0.18844 0.053092 -0.026229 0.11695 -0.50734 0.31434 0.42319 -0.13175 -0.60669 0.095883 0.36503 -0.40922 0.5416 0.47295 0.37863 -0.51319 -0.30142 -0.78435 -0.076301 -0.075463 -0.26298 -0.28606 0.031056 -0.50091 -0.33482 0.36731 0.19148 0.19826 0.29808 0.59471 1.1955 -0.16111 -0.093429 0.29502 0.05989 0.062011 0.421 -0.10636 0.077775 -0.19832 0.1274 0.38024 -0.12759 0.81294 0.10226 0.50358 0.19808 -0.0465 -0.32452 -0.82276 -0.4312 -0.21472 0.41278 0.27994 0.1552 0.15662 0.3094 -0.44972 -0.033278 0.10171 0.50959 0.12079 -0.64743 0.39389 -0.071949 -0.10702 0.14573 -0.4262 0.36226 -0.061767 0.29122 0.64838 0.22013 0.12176 -0.24016 0.34235 0.086365 0.35937 0.30196 -0.59941 -0.35927 -0.37435 -0.34381
article -0.28468 -0.21633 0.75262 -0.51873 -0.49074 0.86123 0.35083 -0.34594 -0.13324 -0.31566 -0.11897 0.32364 -0.027349 0.20549 0.64772 -0.62344 -0.25736 -0.18724 0.093838 -0.073936 -0.50615 -0.17657 -0.18025 0.10995 0.27999 -0.041908 1.2368 0.61777 0.23662 0.071506 1.1712 0.49244 -0.69586 -0.17759 -0.27873 0.086407 -0.0024045 0.047127 -0.14042 -0.69491 -0.13761 -0.057998 0.084053 -0.87962 0.57021 -0.27041 -0.12857 0.4129 0.72826 0.36325 0.58886 -0.72584 -0.14861 0.12794 -0.43227 -0.51389 -0.67578 -0.41783 -0.29439 -0.15968 0.89394 -1.0093 0.42769 0.079668 0.57767 0.020372 -0.061262 0.26978 0.67357 0.10791 -0.25472 -0.77849 0.070077 -0.10828 -1.0382 -0.54122 -0.43263 0.075769 0.23467 0.18457 0.16595 0.21059 -0.29951 -0.10338 0.22365 0.18799 0.16996 -0.23021 0.238 -0.22437 0.31831 0.099873 0.13926 -0.095602 0.24142 -0.43243 -0.12444 -0.55793 0.40241 -0.30515
anxiety 0.25315 -0.18311 -0.003307 0.11143 0.34429 -0.27054 0.041726 -0.090498 -0.032361 -0.27317 -0.24984 0.10229 0.1815 -0.42335 -0.11041 -0.36901 0.34515 -0.51036 -0.84565 -0.66932 0.11291 0.16685 0.58086 -0.025835 -0.6208 0.68665 0.8687 0.21547 -0.53791 -0.29088 0.010104 0.10013 0.092778 0.42156 -0.36764 -0.31384 -0.17862 0.33501 -0.24468 0.23735 0.28003 0.22082 0.18113 -0.29175 -0.22696 0.013989 0.076426 0.41231 0.15625 0.34111 0.46017 0.068966 0.027618 0.73162 -0.096462 0.050892 -0.046297 -0.5749 0.42947 0.05235 0.53586 -0.11792 0.4102 0.36287 0.7054 -0.040383 -0.17073 -0.21181 -0.48562 -0.58035 -0.38406 0.46655 0.46911 -0.63124 0.004906 -0.4369 -0.19159 0.038638 0.32146 -0.055826 0.17142 -0.10343 0.16465 -0.34141 -0.006162 0.58359 -0.34992 -0.14989 0.35912 -0.046182 0.21413 0.015255 0.73141 0.38496 -0.33545 0.081657 -0.030281 -0.34424 0.17047 0.012654
month -0.1894 0.069778 0.13943 0.047865 -0.32024 0.15767 -0.4647 -0.023467 -0.010454 -0.4751 -0.66129 -0.29855 -0.12148 0.11617 0.3625 -0.54864 0.16261 -0.25099 -0.10276 -0.19221 -0.1134 0.076575 -0.24038 0.57332 0.22263 -0.48291 0.38897 0.086851 -0.13204 -0.19592 0.24473 0.60597 0.49113 -0.34394 -0.37185 -0.17964 0.055771 0.014379 -0.29072 -0.11856 -0.10835 -0.024529 -0.13339 -0.2516 -0.056216 -0.05397 0.061303 0.10816 0.59526 -0.37922 0.38002 -0.41831 -0.070248 -0.084257 -0.33385 0.2583 -0.016581 0.25027 0.2634 0.16214 -0.018883 0.28833 0.22295 -0.20562 -0.083337 0.12741 0.16428 -0.12367 -0.14968 -0.38227 -0.36379 0.094448 0.37662 -0.30543 -0.24297 0.028818 -0.35359 0.18734 -0.1864 0.47422 0.11348 -0.11665 -0.051234 0.2167 0.17084 0.099231 -0.079551 0.62378 -0.24916 0.19522 -0.3255 -0.238 -0.15552 0.17535 -0.1859 -0.059556 0.047994 -0.58729 0.065668 -0.50283
carnivore -0.1417 0.023642 -0.055703 0.021982 -0.14101 0.10834 -0.40141 -0.21818 0.030084 0.11561 0.082824 0.3332 0.27023 -0.045564 -0.24325 -0.48484 0.25767 -0.066708 -0.38607 -0.51679 -0.096769 -0.24337 -0.054458 0.036646 -0.16217 0.15895 0.42056 0.21369 -0.15195 0.23665 -0.07324 0.3273 -0.32494 -0.10836 -0.15133 -0.20447 0.24574 0.04932 -0.016436 -0.15147 -0.20988 0.31868 0.29254 -0.14849 0.66798 0.31449 0.57695 0.46495 -0.18263 -0.16224 0.44675 0.010575 -0.17739 0.36151 0.040091 0.072842 0.063522 -0.15222 0.39373 0.21967 0.45235 -0.053047 0.33468 -0.16508 0.53334 -0.21038 -0.25057 -0.24799 -0.19106 0.0042172 0.11513 0.13725 0.28476 0.16941 -0.38593 -0.18254 0.030412 0.77134 0.20004 -0.29203 0.3726 -0.44359 -0.1117 0.035099 -0.02543 1.3208E-4 -0.019302 0.35253 0.68426 0.13739 -0.28928 -0.10184 0.24685 0.51504 0.067986 -0.0076631 -0.38326 -0.16072 -0.037293 0.34945
party -0.29046 -0.052496 0.0047117 0.24771 0.11597 -0.18511 0.073538 0.17131 0.12062 0.082606 -0.21362 -0.26137 -0.15881 -0.09581 0.033099 -0.24399 -0.05783 0.44906 -0.34825 -0.24669 0.1451 0.079825 -0.45793 0.87143 -0.46295 0.16714 0.35132 0.059533 -0.06754 0.0032797 -0.45059 0.048 -0.40647 -0.089281 -0.05559 -0.29629 -0.13476 -0.078527 -0.1998 -0.3867 -0.60047 -0.12709 0.43587 -0.18808 0.22405 0.28217 -0.28068 0.4408 -0.17597 -0.1917 -0.34356 -0.30906 -0.23249 0.43275 0.16988 0.20198 0.2417 0.16022 -0.17371 -0.062481 0.054857 -0.45542 0.14062 0.11377 0.32913 -0.32053 0.019688 -0.43011 -0.4591 -0.74682 0.0023557 -0.21256 0.98078 0.18594 -0.26655 0.097252 -0.16936 0.71733 0.29353 0.11989 0.49076 -0.12248 -0.048846 0.3737 0.37526 -0.24376 -0.20194 0.41157 0.055927 0.31381 0.06438 -0.30966 0.15757 -0.26364 -0.1501 -0.62774 0.099394 -0.73374 0.392 -0.30181
production 0.0038585 -0.11172 -0.087437 -0.17359 -0.18398 0.09512 -0.90176 -0.37042 0.081942 -0.33749 0.040719 0.43406 0.31898 -0.51959 -0.25766 -0.4042 -0.32185 -0.35344 -0.08202 -0.53394 -0.15559 -0.10552 -0.48421 0.035206 -0.049512 -0.22747 0.11381 -0.03833 -0.21932 0.11284 -0.016883 0.62011 -0.17533 0.14435 -0.51089 -0.42239 -0.091444 0.28277 -0.33657 -1.0611 5.3851E-4 -0.050588 -0.062403 -0.19925 -0.02748 0.2397 0.17786 0.42467 0.06165 0.077896 0.51667 -0.2025 0.040965 -0.01115 0.034264 -0.0048964 0.61502 -0.0043847 -0.19125 0.041046 0.46073 0.14737 0.048184 -0.10306 0.028559 -0.044026 -0.90772 0.08519 -0.31473 -0.096254 0.17062 0.53164 -0.077664 0.14053 -0.34192 -0.018696 0.32117 -0.50765 -0.46929 0.51931 -0.44598 0.38275 0.11041 0.072524 0.18165 0.27337 -0.59611 0.025751 0.054333 0.069553 0.057681 -0.50543 -0.39326 -0.30987 0.017684 0.047064 -0.22006 0.17656 0.20418 -0.62125
importance 0.22831 -0.01993 0.23607 -0.22838 0.35028 0.016178 0.32215 -0.33164 -0.18065 -0.24141 0.043197 0.080829 0.1291 -0.072257 0.012202 -0.034763 0.39846 -0.34992 0.041534 0.021867 -0.19256 0.079135 0.0027937 0.066943 -0.11959 0.035201 0.66846 -0.044232 -0.3073 -0.32996 -0.27451 0.1257 0.34232 0.54602 -0.46215 -0.52053 -0.58008 0.1307 -0.18843 -0.085413 0.043175 0.059495 0.29625 0.14527 0.46798 0.52305 0.026088 0.25066 -0.068414 0.1759 0.75116 -0.428 -0.23166 0.31614 -0.067104 -0.40088 -0.61768 -0.15797 -0.039037 -0.13511 0.55525 -0.21368 0.36663 -0.11481 0.19677 0.24356 -0.23261 -0.05324 -0.45722 -0.55604 -0.046628 -0.20821 0.35608 -0.032463 -0.0062417 0.31372 -0.073495 0.54602 0.041234 -0.064816 0.022573 0.29873 -0.016732 -0.12597 0.53692 0.47388 0.1836 -0.026641 0.29633 -0.24014 0.08088 -0.70004 0.056862 0.32302 0.28199 -0.0050254 -0.30337 -0.43106 0.094529 0.033142
inmate -0.25148 0.20491 0.11245 -0.009135 -0.11649 0.065659 -0.043045 -0.31706 0.67649 -0.16565 -0.40812 0.056981 0.33851 0.16609 -0.16689 -0.18092 -0.22283 0.0087961 -0.52853 0.0044339 -0.012836 -0.76573 -0.59698 -0.33676 0.38487 -0.20932 1.0427 0.097762 0.23521 0.21812 0.49983 -0.066579 -0.42533 -0.098109 -0.55025 0.12146 0.42379 -0.37677 -0.20895 -0.48151 -0.53732 0.21105 -0.47611 -0.25876 -0.11861 -0.15547 0.12619 0.2111 0.55848 0.54216 -0.5933 -0.25911 -0.24683 0.0439 -0.52074 0.32411 0.20693 -0.096581 0.15392 0.67135 0.72719 0.33539 -0.18952 -0.38427 0.23343 0.11431 0.012975 0.47329 -0.54108 -0.0092795 0.044347 0.89906 0.33495 -0.17064 0.19056 0.33863 0.21684 0.45008 0.36762 0.57432 -0.02427 -0.55103 0.41568 0.03471 -0.3589 -0.07868 -0.42144 -0.47432 0.10076 0.027016 -0.15561 -0.022668 0.71724 0.087119 -0.45231 0.017743 -0.52762 -0.7664 0.58993 -0.15237
Harvard -0.93254 -0.10104 0.37275 -0.053228 0.8479 0.58891 0.43567 -0.19439 0.33251 -0.26808 -0.045385 0.11659 -0.43537 0.29807 0.2733 0.13925 -0.082975 -0.26629 0.47251 -0.38931 -0.33328 0.059377 -0.32783 -0.11603 0.35873 -0.53482 0.8558 0.22938 -0.54614 0.13553 0.26071 -0.28302 -0.14293 0.028305 -0.13255 -0.15409 -0.56549 -0.086968 0.14461 0.12115 -0.25889 0.56251 0.31161 -0.24603 0.16745 -0.21305 0.49647 1.0263 -0.071941 0.37901 -0.012931 -0.19546 -0.52703 -0.11447 -0.018362 0.069168 0.057401 -0.54694 0.27534 0.17473 -0.014786 -0.83943 0.5146 -0.50022 0.1453 0.31742 -0.44125 0.64044 -0.084197 -0.026889 -0.069793 0.055918 0.50839 -0.76906 -0.30317 -0.33484 -0.3638 -0.12968 0.038481 0.10526 -0.096637 1.8346E-4 0.12514 -0.075055 -0.27923 -0.13853 -0.61201 -0.0096156 0.019541 -0.46498 0.096069 -0.26214 0.55191 -0.15347 -0.39962 0.29212 -0.85346 -0.78286 0.21187 -0.057946
psychology -0.22618 -0.15484 -0.042962 -0.091866 0.5811 0.39434 0.71031 -0.15611 0.036766 -0.50989 -0.18827 0.18037 -0.3101 -0.14102 -0.13404 -0.43438 -0.2194 -0.31736 -0.041173 -0.25874 -0.43217 -0.44661 -0.22005 -0.28092 -0.35807 -0.071214 0.97816 -0.26754 -0.48786 0.1794 0.049825 -0.26944 0.12404 -0.124 -0.50977 -0.34461 -0.36248 0.027006 0.31528 -0.41878 0.26109 0.68606 0.35619 -0.36646 -0.18189 0.092084 0.17436 0.61142 -0.04526 0.97724 0.38413 0.15594 -0.19533 0.34579 -0.094012 0.3949 -0.1102 -0.66965 0.67355 0.53253 0.60291 -0.25056 0.053953 -0.21838 0.69785 0.24739 -0.20713 0.20368 -0.40459 0.10742 0.12972 0.23508 0.46422 -0.62584 -0.066339 0.46149 -0.20979 -0.38711 0.35206 0.14917 -0.23919 -0.095938 -0.10655 -0.47528 0.051126 0.10615 -0.3747 -0.33642 0.76117 -0.73496 0.021415 -0.30133 0.76727 0.74263 -0.09156 0.049741 -0.26279 -0.62536 -0.10106 -0.10197
medal -0.15838 -0.02327 0.034615 0.20837 0.079914 -0.36764 0.6288 -0.98008 0.26096 0.52072 -0.67857 0.13439 0.39151 0.1805 0.06584 -0.36129 0.49144 -0.52973 0.054776 0.10563 0.55213 0.043327 -0.79287 -0.038748 0.2238 -0.90181 0.88995 0.13232 0.10484 -0.16671 -0.65361 0.21998 -0.16243 -0.23303 -0.17464 -0.23361 -0.9795 0.12987 -0.45919 0.12414 -0.94968 -0.22463 -0.50118 0.38717 0.61062 0.090994 0.33892 0.8877 0.12661 0.33017 0.83732 0.73579 0.39993 -0.36546 0.87873 -0.47187 -0.16243 -0.62066 -0.52424 -0.091885 0.22012 0.27101 0.49931 -0.88337 0.54083 -0.99595 0.16824 0.11706 -0.10828 0.17318 0.3434 -0.046919 0.31444 -0.30499 -0.80041 0.31805 0.60532 0.8467 0.3354 0.25615 0.36766 0.13872 -0.0085736 -0.21007 -0.13104 0.64988 -0.12837 0.099068 0.48038 0.45856 -0.23356 -0.69838 0.65521 -0.24682 -0.56321 -1.0909 -0.15428 -0.38096 -0.14081 -0.21942
company -0.39978 -0.26867 0.069659 -0.38073 -0.079929 0.76302 -0.26748 -0.1219 -0.14876 -0.33575 -0.28331 0.3862 -0.090255 0.24037 -0.011216 -0.47879 -0.14279 -0.27436 -0.19537 -0.25863 0.36665 -0.026165 -0.1619 0.023774 0.089048 -0.35719 0.13858 0.1923 0.029012 0.013105 0.085769 0.51262 -0.5199 -0.10811 -0.1336 -0.37751 -0.13834 0.094952 0.34905 -0.51105 0.13831 0.050404 -0.14318 -0.035228 0.64387 0.027337 0.14173 0.38953 0.070806 0.17941 0.0081998 -0.14753 -0.10451 0.25964 0.0090186 0.14418 0.096431 0.16303 -0.37064 0.32818 0.30811 0.044656 0.033387 0.47209 -0.27304 -0.15272 -0.20774 -0.24425 -0.30776 -0.42846 -0.16703 0.012317 -0.099592 0.056283 0.23497 -0.019615 0.11437 0.16113 -0.12635 0.51998 -0.25307 0.16339 0.17478 0.06554 -0.0097992 0.41385 -0.52701 0.32741 0.048084 0.15956 0.20576 -0.64998 -0.2081 -0.11777 -0.17102 0.028295 -0.031749 -0.343 0.41025 -0.18932
live -0.011577 0.09134 -0.1964 -0.025167 -0.097477 -0.22602 -0.25171 0.57203 -0.33478 0.37815 -0.47377 0.22627 -0.19928 0.062659 -0.065718 -0.57152 -0.057999 -0.37285 0.018108 -0.24279 -0.010019 0.030181 0.012597 0.039325 0.095944 0.14031 0.14084 -0.35581 0.57818 0.64973 -0.0027262 0.41184 0.22268 0.11976 -1.1423 0.019049 0.27949 -0.11848 -0.33621 -0.26446 -0.048783 0.53018 0.55316 -0.11374 0.27136 0.10151 0.31284 0.31193 0.21144 -0.08105 0.14326 -0.15618 -0.14775 0.3824 -0.25337 0.018416 0.18484 0.1819 -0.22132 -0.28178 0.59043 -0.14161 0.50417 -0.086263 -0.23196 -0.19044 -0.10297 -0.23112 -0.055905 0.057288 0.36098 0.40298 0.221 0.29937 -0.093705 0.025215 0.28418 0.49514 0.12103 0.29246 -0.364 -0.047699 0.23371 -0.27666 0.23933 -0.069531 0.13555 -0.25146 0.41215 -0.36903 0.13274 -0.18848 -0.051925 0.22218 -0.76177 -0.25122 -0.28198 -0.28422 0.040707 -0.017649
holy -0.012149 0.61312 -0.070564 0.098059 0.038112 0.072119 -0.32235 -0.13169 0.56118 -0.22397 -1.0641 -0.25339 0.24929 0.16904 0.01515 -0.05013 -0.21058 -0.35628 -0.21805 -1.3392 -0.27057 0.02894 -0.23866 0.06723 -0.1074 -0.35495 0.41264 -0.34487 0.24191 0.24241 0.4059 -0.072421 -0.214 0.18807 -0.48859 -0.3877 0.43187 -0.095827 0.055751 0.21484 -0.10077 0.028361 0.36479 -0.15438 0.47092 0.73039 0.67279 0.27104 -0.38552 0.20729 0.53507 -0.58764 0.22314 -0.058241 -0.068273 0.62479 -0.32929 0.70522 0.0050785 -0.55668 1.0577 -0.17443 0.68648 -0.82383 0.17848 -0.078728 0.095818 0.011163 0.35566 -0.15491 -0.57757 0.16391 0.23221 0.068998 -0.30359 0.09678 -0.098226 0.45321 0.12656 -0.48992 0.23642 -0.12389 0.59453 0.21986 0.26828 -0.13017 -0.16305 0.39475 0.51585 -1.2253 -0.16407 0.0042688 0.68604 0.42377 -0.050622 -1.0208 -0.19168 -0.11085 -0.054074 -0.16995
ticket -0.62231 -0.18317 -0.37361 -0.60453 -0.33881 -0.01569 -0.14668 -0.54731 -0.01462 0.034438 -1.0313 -0.35847 -0.35201 0.26187 -0.050441 -0.70241 0.39882 -0.1056 -0.19281 -0.40981 0.10888 0.18155 0.13056 0.34213 -0.047527 -0.14563 0.33514 -0.020377 0.52574 -0.53102 0.13504 0.14732 0.099717 0.35063 0.012157 -1.036 0.34866 -0.066997 -0.50521 0.17379 -0.29234 0.27267 0.048845 -0.12065 0.097417 0.12116 0.041481 0.99017 -0.10378 -0.68161 -0.43493 0.62061 -0.37834 -0.059023 0.3983 0.071161 0.25746 -0.39402 -0.49799 0.1672 -0.098802 -0.027452 0.48176 0.75554 0.054054 -0.16229 -0.037873 0.20286 -0.39226 -0.070135 0.34235 -0.076248 0.2062 -0.022189 -0.28421 -0.092514 0.0046548 -0.1109 -0.22773 0.17124 0.2748 -0.18098 0.54568 0.43119 0.80521 -0.20783 -0.13855 0.10181 0.27212 0.024689 -0.034118 -0.18372 0.26927 -0.16086 0.085628 -0.5838 -0.077751 -0.65541 -0.41093 0.039608
victory -0.23078 -0.28929 0.17275 0.44715 0.38961 -0.36013 0.17122 -0.48954 -0.30379 0.40078 -0.26019 -0.17809 0.37454 0.2756 0.34466 -0.20683 0.36611 0.037244 -0.45539 0.41744 0.41284 0.090515 -0.84705 0.32923 -0.49608 -0.19446 0.81928 -0.2074 0.14297 -0.10266 -0.27454 -0.16321 0.25736 -0.40829 -0.34034 -0.14962 -0.65046 -0.089428 0.0046142 0.072543 -0.041879 0.35101 -0.22366 -0.1822 0.080869 -7.8067E-4 -0.038188 0.20926 0.18568 -0.19847 0.5956 0.13388 -0.46466 0.070695 0.14635 0.2153 -0.12394 -0.29135 -0.19566 -0.47408 0.544 0.12474 0.09173 0.26415 -0.20961 -0.60663 0.19398 0.5292 0.59763 -0.2587 -0.30798 0.36512 0.80681 -0.010771 -0.80486 -0.098391 0.23981 0.25256 0.54483 0.65845 0.20954 0.29913 0.14294 0.38653 0.85481 0.33723 0.58209 0.90373 0.30298 -0.33893 -0.031918 -0.16989 0.55434 -0.24892 0.16253 -0.42964 -0.22823 -0.61996 0.36181 0.11913
football -0.33894 -0.2866 0.46521 -0.16058 0.44449 -0.0089244 -0.12212 0.34306 -0.041638 0.28449 -0.63553 0.51352 0.0092314 0.29313 0.10399 -0.31443 0.14571 -0.25626 -0.016303 -0.43108 -0.56088 -0.18229 -0.23175 0.14168 0.090446 -0.13732 -0.15231 -0.049741 -0.31911 0.098917 0.18003 0.08158 0.14212 -0.57067 -0.071593 -0.1716 -0.45419 0.27149 -0.86404 0.31835 -0.68567 0.31062 -0.034457 -0.090525 -0.057101 -0.038486 0.0013265 0.53634 -0.77382 0.35164 0.059597 0.1292 -0.11265 -0.12773 -0.18187 0.020327 -0.28667 -0.14496 -0.26263 0.43273 0.39623 0.030079 0.42564 0.48685 0.38548 -0.40808 -0.34605 -0.20142 0.0047036 -0.45807 0.42672 0.44848 0.97535 -0.023999 -0.28122 0.52971 0.102 -0.3049 0.17678 0.052176 -0.053409 -0.11885 0.0076723 -0.093447 0.35753 0.14938 -0.21195 -0.087633 0.84176 -0.33105 -0.084359 -0.48373 -0.13258 0.19137 -0.028557 -0.56515 -0.41607 -0.48835 -0.54531 0.22474
stroke 0.16005 -0.093934 -0.15009 0.38157 -0.054313 -0.42245 0.20344 -0.18879 -0.19157 -0.0046203 -0.59984 -0.19844 -0.66205 -0.19292 0.24732 0.09934 0.20266 -1.1312 -0.54131 -0.024639 -0.23785 -0.24183 -0.30889 0.23887 -0.15324 -0.002289 0.66878 0.36074 0.15859 0.47543 -0.56609 0.87004 -0.69821 -0.23302 -0.08238 -0.25573 -0.3205 0.3858 0.081846 -0.253 0.23076 0.73044 -0.13974 0.45419 -0.4447 -0.14539 -0.16543 0.035262 0.072412 0.070422 0.074846 0.33336 0.036013 0.61181 0.2611 0.23967 0.048987 -0.45393 0.45106 -0.38479 0.30732 0.55309 -0.052969 0.31843 -0.29139 -0.41067 -0.52584 0.26861 -0.33362 0.17018 -0.90221 0.089269 0.55036 -0.55209 -0.45785 -0.1703 0.016243 0.25722 0.40454 0.4402 0.24104 -0.58622 0.30374 -0.30351 -0.28948 0.73274 -0.62812 0.033324 0.19193 0.10831 -0.31691 -0.33361 0.57986 0.25271 -0.3776 -0.19672 -0.35516 -0.34541 0.41238 -0.19019
environment 0.28424 -0.32479 0.11145 -0.55721 0.31996 -0.17117 -0.18506 -0.4895 -0.16067 -0.26731 -0.041793 -0.12535 -0.47461 -0.062268 -0.066926 -0.31004 -0.16516 0.095953 -0.25987 0.081576 0.20217 -0.14454 0.16661 0.26859 -0.053143 0.28926 0.59705 -0.38344 -0.015631 0.02841 -0.0011643 -0.007856 -0.066607 0.15955 -0.79349 -0.15487 -0.40535 0.18988 -0.078927 -0.19948 -0.072987 0.1007 0.44351 -0.12256 0.22704 -0.012595 0.62982 0.17011 -0.30919 -0.0098688 0.39709 -0.4868 -0.1965 0.5576 -0.53977 0.091075 -0.16445 -0.19938 0.082521 0.23725 0.78153 0.066521 -0.031287 0.10906 0.14818 0.15599 -0.69988 -0.65568 -0.20232 -0.12944 0.1886 0.039493 -0.047769 0.010122 -0.34424 0.33929 0.026622 0.49527 -0.15091 -0.23907 0.24304 0.47116 0.2195 -0.042018 0.48305 0.34192 -0.65661 0.090997 0.36763 0.24793 0.20381 -0.15134 0.31564 -0.18276 0.020415 0.036171 0.15619 -0.52594 -0.079341 -0.0073831
coffee -0.38896 0.22958 -0.029792 0.071814 0.38001 0.061041 -0.32436 -0.33475 0.32697 -0.24878 -0.77517 0.42695 -0.45771 0.1468 -0.044261 -0.23699 0.28776 -0.77399 -0.32882 -0.52429 -0.10528 -0.028939 -0.32384 0.22911 0.23258 -0.33886 0.21755 0.15447 -0.091355 -0.18458 0.20766 0.40947 -0.04633 0.17478 -0.10996 0.014539 0.60289 0.31449 0.24401 -0.37864 0.42025 -0.10712 0.46103 -0.17229 0.066683 0.53323 0.46691 0.021136 0.0020589 -0.31063 0.025652 0.57076 -0.0016464 -0.20294 -0.10568 0.54657 0.29559 -0.1375 -0.081233 -0.11184 0.62968 -0.44825 0.57061 0.2045 -0.15111 -0.16785 -0.44442 -0.38424 -0.69519 -0.46371 0.070964 -0.1326 -0.11037 0.12645 0.052442 -0.19875 0.13889 0.0080341 0.046422 -0.21579 0.39132 -0.32356 -0.32015 0.80271 0.40946 0.19502 -0.61219 0.019673 0.90538 -0.045228 -0.058831 -0.079475 0.28529 -0.19602 -0.32784 -0.71402 -0.57283 -0.23841 0.28844 0.55829
baby 0.20969 0.1467 -0.16523 0.043311 0.38039 -0.16884 -0.12844 0.34658 0.18483 0.18186 -0.58634 0.23439 -0.11272 -0.0037507 0.37895 -0.58461 -0.066354 -0.22507 -0.75668 -0.091628 0.3657 -0.21856 0.022988 0.2478 0.067166 -0.17096 0.25435 0.59603 -0.30313 -0.035378 0.4719 0.61299 0.049018 0.24419 -0.20823 0.013716 -0.064596 0.1276 -0.20138 -0.5768 0.087273 0.42256 0.64694 -0.072393 0.76603 0.22343 0.047232 0.32257 0.28925 0.3026 -0.21346 0.21399 0.21435 0.33962 -0.0056023 0.49541 0.19896 -0.26019 0.010695 0.76668 0.18728 -0.24429 -0.12226 -0.3195 0.47849 0.27893 -0.38509 -0.14302 -0.64415 -0.15529 -0.45721 0.25096 0.45079 0.12775 -0.55606 -0.007731 0.47169 1.0058 0.037385 0.52937 0.60472 -0.27936 -0.3185 0.088753 -0.3469 0.34601 -0.0061261 -0.294 0.19701 0.62518 -0.18237 -0.22668 -0.30088 0.34228 0.058133 -0.055456 -1.0446 0.23919 0.20909 -0.14731
personnel 0.0020844 -0.48136 0.37054 0.26499 -0.10438 0.44499 -0.028741 -0.57053 0.78186 -0.052329 -0.36439 0.41357 -0.22613 -0.11547 0.038094 -0.039438 0.0071106 0.088085 -0.1365 -0.1079 0.30713 -0.68356 -0.38907 0.0072925 0.46116 0.13643 0.54474 0.19553 -0.22794 -0.0018618 0.10076 0.0082409 -0.029705 0.31819 -0.64164 -0.18568 0.4875 0.38681 -0.61087 0.28169 -0.28552 0.33476 0.11224 0.50797 0.4104 -0.066937 0.32701 0.4687 -0.23716 -0.23284 -0.28985 -0.22455 -0.21397 0.079364 -0.17805 -0.30983 0.087656 -0.0030296 0.15231 0.27426 0.91348 0.11256 -0.06215 0.018344 -0.18904 -0.29505 0.075994 0.18483 0.096748 -0.57888 0.077591 0.36319 0.19965 0.15596 0.29206 0.41781 -0.10123 0.18955 -0.15924 0.61289 0.037621 0.41423 0.76365 -0.14587 -0.077844 0.33626 -0.071969 -0.043882 -0.26852 0.16825 -0.015755 -0.77318 0.15439 0.0293 0.2782 0.26132 0.17994 -0.12169 -0.39229 -0.065527
family -0.28127 -0.3059 0.31297 0.047899 -0.011098 0.19978 0.074229 0.036539 0.16574 -0.13218 -0.35521 0.10664 -0.21891 0.16399 -0.086582 -0.7404 0.23111 0.092227 -0.4704 -0.46575 0.1115 0.23701 -0.23028 0.076917 0.052152 0.049563 0.61206 0.31162 0.337 0.42849 0.025415 0.18005 0.33206 0.19275 -0.40473 -0.29561 -0.097519 -0.098441 -0.29324 -0.2264 0.092431 0.3673 -0.079647 0.28064 0.28623 0.50191 0.0043865 0.48675 -0.016375 0.21496 0.019071 -0.34219 0.26424 0.59469 8.9585E-4 0.45606 -0.030641 0.14544 -0.25645 0.21959 0.21454 -0.29565 0.027451 -0.14873 0.26257 -0.20616 -0.053219 -0.62628 -0.18277 -0.3388 0.34229 0.4091 0.23867 0.18572 0.25478 0.19449 -0.18052 0.54786 0.21856 0.097561 0.28788 -0.41664 -0.089081 0.010103 -0.1216 -0.11019 -0.061822 0.015282 -0.055079 -0.048747 -0.1376 -0.22023 -0.22875 0.17244 -0.17462 0.022436 -0.4366 -0.40456 0.11544 0.0095686
hypertension -0.16179 -0.1288 -0.072755 -0.15714 0.38653 -0.12552 -0.013422 -0.17029 0.049107 -0.49659 -0.22631 0.39408 -0.3162 -0.4724 -0.30188 0.20357 0.30525 -0.82737 -0.47868 -0.24031 -0.093158 0.16377 0.202 -0.26206 -0.2159 0.33071 0.91561 0.33922 -0.53716 -0.045461 0.054901 0.66059 -0.62647 0.41913 -0.42254 -0.17861 0.22658 0.36923 -0.21979 -0.1351 0.12151 0.13345 0.087776 -0.048207 -0.062919 -0.032953 0.045116 0.37669 0.088359 0.090414 0.17327 -0.061885 -0.20336 0.4473 -0.29258 0.25775 0.26877 -0.69851 0.70314 0.15125 0.4429 -0.18902 -0.0020982 0.28553 0.53451 -0.15598 -0.087432 0.16883 -0.32792 -0.19846 -0.21105 0.35144 0.3922 -0.47306 -0.22558 -0.29668 0.0026605 0.30602 0.19758 0.41672 -0.070044 -0.171 0.39008 -0.67322 -0.032114 0.19773 -0.3498 -0.19759 0.40672 -0.053234 0.063775 -0.21181 0.61852 0.37478 -0.29402 0.041289 -0.24799 -0.51332 0.2421 -0.23613
president -0.10823 0.22638 0.30097 -0.36001 0.41745 0.32766 0.025919 -0.26283 0.40301 -0.31521 -0.20697 0.15958 -0.24284 0.35058 0.3812 -0.17159 0.3205 0.12434 0.22923 0.24214 0.39547 0.34567 -0.10698 0.23001 -0.32033 -0.04812 0.13327 -0.13528 -0.19077 -0.20159 0.27226 0.10922 0.13126 0.23001 -0.2249 -0.33425 -0.26977 0.44108 -0.34018 -0.42416 -0.3953 0.078431 0.11629 -0.018936 -0.51421 0.0082787 0.11164 0.4761 -0.0078531 0.0032674 -0.13884 -0.36738 -0.46258 0.20187 -0.12376 -0.19801 -0.12379 0.030525 -0.61957 0.24904 0.15654 -0.27023 0.31179 0.14351 -0.19509 -0.44814 -0.12563 -0.030312 -0.032432 -0.24999 -0.24338 0.3992 0.94532 -0.25806 -0.11471 0.013931 0.17957 0.31174 -0.039946 0.51661 -0.043382 -0.032652 -0.13082 0.20581 0.025613 -0.25481 -0.6425 0.57845 0.091206 0.038735 0.28302 -0.69304 0.15366 0.47196 0.0509 -0.4999 -0.17637 -0.24531 0.8959 -0.22409
atmosphere -0.021122 -0.39362 0.18 -0.29026 0.34978 -0.47091 -0.59916 -0.029822 0.098178 0.51154 0.001364 -0.23285 0.092057 0.079275 0.0762 -0.17595 -0.30743 -0.23571 -0.43731 -0.45468 -0.20323 -0.14188 0.27714 0.53441 -0.67512 0.019735 0.51003 0.079681 -0.30123 0.31505 0.23104 0.068394 -0.21542 0.0097938 -0.57708 -0.45058 -0.081142 -0.10402 -0.73922 -0.078789 -0.35186 -0.063973 0.013623 -0.37077 -0.26033 0.38974 0.46136 0.93695 -0.25317 -0.46041 0.86705 -0.21781 0.065976 0.037876 -0.43991 -0.05647 0.039276 -0.18256 0.14051 0.11045 0.70017 0.093538 0.49557 0.25709 -0.28599 -0.17795 -0.80823 -0.05839 -0.29434 0.011986 0.79991 -0.24634 0.16617 0.046835 -0.46017 0.18092 -0.036061 0.1183 0.22561 -0.84038 0.36795 -0.13751 0.12637 -0.26268 0.28964 0.32188 -0.33406 0.27262 0.12442 0.28994 -0.19014 0.066171 0.34613 -0.073361 0.066471 0.091045 -0.051647 -0.35029 0.29814 0.060214
practice -0.27903 -0.27788 -0.053496 -0.13127 -0.06885 0.081234 0.17653 -0.55918 0.1611 0.15136 -0.46876 -0.30894 -0.16469 -0.060414 -0.24162 -0.032875 0.21311 -0.57989 -0.27015 0.16244 -0.26573 0.01257 -0.40309 0.10161 -0.0067245 -0.07651 0.34222 -0.38026 -0.4425 0.2701 0.14668 0.075287 -0.086686 -0.44117 -0.35438 0.025599 0.12567 -0.031536 0.18757 -0.12177 -0.82482 0.037637 0.34184 -0.067843 0.53663 0.052128 -0.058087 -0.23535 -0.27859 0.47505 0.56819 -0.20275 -0.28807 0.062484 -0.37292 0.472 -0.023133 -0.26305 -0.31867 0.23 0.28471 -0.52085 -0.058748 0.16749 0.067245 0.41877 -0.48937 0.11703 0.020275 -0.58512 -0.19227 -0.16834 0.29029 -0.31585 -0.032326 0.0222 -0.26405 0.37817 0.02304 0.42769 -0.083842 -0.15802 0.64441 -0.31779 -0.33803 0.58676 -0.28319 0.04471 0.17593 -0.65709 -0.13989 -0.32924 -0.34882 0.19803 -0.11454 -0.19834 0.10599 -0.25261 -0.11522 0.26009
movie -0.28038 0.29547 0.28043 -0.24413 -0.27819 0.27608 -0.0020189 0.20434 0.1899 -0.24511 -0.30404 0.68827 -0.10233 0.043327 -0.29516 -0.49968 -0.26314 -0.48387 -0.11106 -0.21223 -0.23914 -0.36027 -0.3847 0.22215 -0.28452 -0.11056 -0.034598 0.25797 0.66862 0.28631 7.7249E-4 -0.016581 -0.015842 -0.49444 -0.60248 -0.82265 -0.066871 0.16762 -0.2159 -0.68579 -0.2694 0.074833 -0.13175 -0.048961 0.053741 -0.29301 0.14828 1.1732 0.46653 0.42387 0.45175 0.4248 -0.27934 0.17049 0.61882 -0.17499 0.64123 -0.058303 -0.0044625 0.29372 0.19466 0.079529 0.31934 0.043153 0.50041 -0.284 -0.18329 -0.45581 -0.090265 -0.16017 0.36476 0.38628 0.11413 0.45792 -0.14749 0.22822 0.30937 -0.22801 0.2418 -0.17611 0.18575 -0.30182 0.42255 0.72498 0.21185 -0.19438 -0.27353 -0.24999 0.30057 0.18274 0.22207 -0.33585 0.0015676 0.012862 0.14728 0.18815 -0.6738 -0.10027 -0.10252 -0.42311
popcorn -0.068382 -0.12012 0.051965 0.40743 0.065123 -0.040747 -0.92579 -0.00346 0.27669 -0.11962 -0.38819 0.62642 0.26501 -0.22189 -0.30249 -0.21375 0.43269 -0.74967 -0.46232 -0.39486 0.077982 0.032435 -0.080547 0.14574 -0.12198 -0.49516 0.21124 -0.29616 -0.060979 0.28563 0.49376 0.1201 -0.41324 0.31934 -0.55008 -0.3963 0.50085 0.10179 -0.15512 -0.49457 0.26078 -0.098261 0.19507 -0.21699 0.33819 0.0054331 0.50259 0.64053 0.38296 0.30927 0.39626 0.35028 -0.16523 -0.22549 0.30484 0.52438 0.17424 -0.40187 0.28791 0.47365 0.32807 -0.18858 0.17427 0.40253 0.50446 -0.20443 -0.47207 -0.19354 -0.081362 -0.11172 0.018227 0.3103 0.13859 0.10863 -0.37461 -0.37144 0.099005 -0.14014 -0.17199 -0.47542 0.20011 -0.418 0.22476 0.27685 0.29896 0.31077 -0.40711 -0.026134 0.53398 0.19778 -0.18333 0.09192 0.09638 -0.010543 -0.25294 -0.19444 -0.76414 0.19825 0.3404 0.33407
recommendation 4.4165E-4 0.025504 0.073533 -0.065776 -0.020632 0.50524 0.50468 -0.57605 0.25396 -0.66748 0.020059 0.054968 -0.12056 -0.28311 0.45261 -0.084026 0.053542 -0.60588 0.23846 0.17373 0.29061 0.52987 0.0095987 -0.023529 0.31201 -0.18719 0.47545 0.10874 0.1234 0.16009 0.07077 0.26078 0.10885 -0.063488 -0.27178 -0.38849 0.29555 -0.026241 -0.035996 -0.23232 0.26841 -0.55465 -0.0044185 0.1499 0.24159 -0.015724 -0.078936 0.2674 -4.984E-4 -0.34402 0.53929 -0.0048723 -0.56375 -0.10279 -0.27384 -0.04894 -0.47446 -0.28771 0.2273 0.22421 0.58466 -0.65142 0.2557 0.28919 0.029808 -0.24336 -0.2296 -0.17892 -0.60726 -0.40841 -0.088263 0.080558 0.38075 -0.037152 -0.08679 0.26589 -0.45424 0.075005 0.1814 0.47924 -0.19251 0.18252 0.25089 0.39736 -0.37234 0.46973 -0.18286 0.14168 -0.09626 0.3446 -0.40431 -0.14258 -0.26484 0.29029 0.33244 -0.47027 -0.088801 -0.44984 -0.11692 -0.67647
focus 0.20829 0.01118 0.52982 -0.15654 -0.093485 0.022178 0.038255 -0.33706 -0.4146 -0.45216 -0.038476 0.058734 0.1407 -0.60257 0.29702 -0.41911 -0.0037176 -0.21242 -0.15432 0.22097 -0.011374 0.098947 0.31642 0.066148 -0.17074 0.1216 0.16263 -0.20453 -0.26524 -0.32942 -0.11915 0.43253 0.4609 0.20458 -0.47303 -0.12569 -0.010069 0.09662 0.18868 -0.25177 0.059686 9.8271E-4 0.10105 0.35606 0.33859 0.43844 -0.0034202 0.41693 -0.14504 0.33978 0.6963 -0.43912 -0.049327 0.29277 -0.38665 -0.074425 -0.017003 -0.03036 -0.13618 0.039824 0.24358 -0.49707 0.31724 0.30996 0.090473 0.14626 -0.1608 0.26893 -0.56635 -0.62376 0.050031 -0.074028 0.72372 0.0862 -0.26366 0.27536 0.54195 0.037685 -0.12542 0.15426 5.4954E-4 0.29511 0.34201 0.36726 -0.12355 0.3719 -0.067808 0.070006 0.34705 -0.27887 0.20819 -0.42256 -0.24778 0.1621 -0.1334 -0.016298 -0.072245 -0.54936 -0.31839 -0.06706
attempt -0.13825 -0.0566 -0.2752 -0.13724 -0.3365 -0.36833 0.027277 -0.2958 -0.26918 0.19825 0.087188 -0.26501 0.42311 0.18965 0.79095 -0.17288 -0.13979 -0.0806 -0.55907 0.27777 0.0021173 0.32053 -0.34841 0.67033 0.23581 -0.44948 0.75415 0.75157 -0.26009 0.44097 0.13327 -0.13386 -0.22085 -0.1637 -0.16799 -0.07191 -0.27981 0.080084 -0.020475 -0.093362 -0.5056 0.060555 -0.14219 -0.082511 0.21983 0.25367 -0.06548 0.37877 -0.06537 0.050304 0.17671 -0.17836 -0.0086823 -0.0052243 4.5798E-4 -0.20592 0.2102 0.30784 -0.04133 -0.19857 0.47982 -0.28399 0.48931 0.40061 0.30278 0.06763 0.051154 -0.28391 -0.15741 -0.35014 0.036755 0.57686 0.51268 -0.58373 -0.36191 0.10412 -0.011134 0.35169 0.075802 0.15013 -0.17361 -0.27122 0.75225 0.67832 0.13113 -0.030667 -0.13692 0.25208 0.21119 -0.034043 -0.13581 0.35126 0.19734 -0.13673 0.56175 0.10453 0.52931 -0.17684 0.16481 -0.11896
approach 0.34947 -0.12845 0.12103 -0.29988 -0.012756 0.098395 0.064886 -0.18106 0.062674 -0.50328 0.13311 0.019312 -0.32204 -0.082243 0.18271 -0.11949 -0.40006 -0.50513 -0.48065 0.52764 -0.12866 0.078928 0.12394 0.10602 -0.11624 0.39597 0.49621 0.070204 -0.38384 0.30494 -0.0045835 -0.18177 0.122 0.0031191 -0.0090075 -0.58872 -0.11719 0.17472 0.34933 -0.073888 -0.28608 0.16413 0.29249 0.11649 0.0445 0.13811 -0.11813 0.086904 -0.22057 -0.44899 1.0945 -0.098491 -0.39966 0.28783 -0.11921 -0.18593 -0.0053722 0.24477 0.10633 0.34003 0.54175 -0.46108 0.26468 0.4983 -0.018334 0.10563 -0.34269 0.1466 -0.49229 -0.11277 -0.18428 -0.025453 0.30922 -0.32522 -0.2083 0.16896 0.11883 0.27245 0.11763 0.10151 0.0041025 0.018823 0.38787 0.1673 -0.091013 0.27906 -0.0030801 0.45117 0.24046 -0.37742 -0.0083384 -0.41749 -0.03214 -0.27772 0.29071 0.018175 0.047221 -0.3714 0.086181 -0.2529
number 0.025429 0.2263 -0.31336 0.28523 -0.069191 0.24767 -0.66321 -0.51458 -0.20691 0.42071 0.11006 -0.26793 0.11736 0.22362 0.22691 -0.31733 0.29487 -0.68034 -0.014251 -0.08152 -0.10742 0.031257 0.25422 0.12626 0.56785 0.16601 0.58362 -0.10566 0.25897 -0.25439 -0.49385 0.34104 -0.15814 0.11409 -0.24141 -0.22084 0.061216 -0.069445 -0.35757 -0.16934 -0.27067 0.37958 -0.10812 0.16517 0.30898 -0.23256 -0.11315 0.35722 -0.10625 -0.43746 0.20591 -0.24443 -0.22333 0.24317 -0.077951 -0.043959 0.097656 0.32412 0.33517 0.36939 0.62389 -0.159 0.50756 -0.081801 0.022019 -0.31 -0.10859 0.19141 -0.31887 -0.42889 -0.18443 -0.037524 0.2055 -0.16236 0.14038 -0.52104 -0.11595 0.15456 -0.45023 0.40013 0.37396 0.030552 0.13446 -0.039428 -0.12824 0.27076 0.033362 -0.13728 -0.079271 -0.10166 -0.072421 -0.36008 0.33233 -0.20753 -0.084936 0.28006 -0.55976 -0.57307 -0.35941 0.14235
property -0.50794 -0.57674 -0.097403 -0.63901 -0.51077 0.061246 -0.29437 -0.10994 -0.015927 -0.27784 -0.4534 0.14368 -0.1056 0.13212 -0.58181 -0.78856 0.013599 0.026293 -0.50511 -0.2982 -0.10803 0.56137 0.42827 -0.11779 -0.066155 -0.21513 0.89477 -0.31981 -0.059284 -0.22491 -0.1223 0.33076 -0.19283 -0.21441 -0.25643 0.23592 -0.18516 -0.0070181 0.31795 -0.029705 0.11023 0.17702 0.16727 0.090716 0.26843 0.048644 -0.35736 0.50992 -0.23269 0.086139 -0.61425 0.081416 -0.17474 0.7344 -0.12297 -0.30843 0.022399 -0.022012 -0.03492 -0.073391 0.46559 0.012098 0.38573 -0.42079 -0.12272 -0.17129 0.38549 -0.49958 -0.34988 -0.38256 0.32934 0.63402 -0.20152 0.24481 -0.34027 0.51078 -0.3565 0.21023 -0.21192 0.27713 0.35422 0.18674 0.35438 -0.038512 0.43854 -0.11214 -0.49168 0.15693 0.51107 0.10493 -0.15786 -0.55057 -0.22456 -0.1002 -0.045312 0.068022 -0.21957 -0.10115 0.28876 0.10772
fingerprint -0.11199 -0.043115 0.21769 0.18881 -0.2932 0.18859 0.3683 -0.065792 -0.065864 -0.062927 -0.14527 -0.18415 0.16267 0.25411 -0.21182 -0.38809 0.071465 -0.23318 -0.16321 -0.0042211 -0.17055 -0.46793 0.2125 0.48119 0.60804 -0.79611 0.81614 0.10355 -0.3283 0.072731 -0.13484 0.4079 -0.15059 -0.29188 -0.47488 -0.47524 0.17468 -0.14132 0.055633 -0.127 -0.32983 -0.14327 -0.048152 -0.018375 0.37974 -0.031447 0.23818 0.21461 0.020671 0.70648 -0.33006 -0.19217 -0.044484 0.20996 -0.23821 -0.24168 0.30683 -0.13588 0.29205 0.55802 0.87545 -0.47589 0.55154 0.26404 -0.022947 -0.0010505 -0.0052089 0.32419 -0.59413 -0.061756 -0.1822 -0.37926 -0.11025 -0.16656 -0.33481 -0.11228 -0.38039 0.48224 -0.068028 0.70822 0.036411 -0.092838 0.33947 -0.081419 -0.26598 -0.22612 0.63773 -0.31082 0.52183 0.16672 -0.091989 -0.0054185 0.19876 0.61177 0.30291 0.064924 -0.18987 -0.058128 0.2933 0.056671
reservation -0.37303 -0.44845 -0.076774 -0.28674 0.0042907 0.54426 -0.026389 -0.19469 -0.042842 -0.20376 -0.47071 -0.0043694 0.025332 -0.25603 0.030513 -0.14581 0.19142 -0.048065 0.011859 -0.39486 0.30664 0.25746 0.069702 0.058802 -0.010712 0.093945 0.55446 0.2661 0.46 0.10037 -0.25464 0.032622 -0.29659 0.27305 -0.22021 -0.54328 0.35362 0.015624 -0.030189 -0.013389 -0.40962 -0.0050697 0.47284 -0.11547 0.24332 0.30778 -0.0027173 0.053197 0.21377 -0.15857 -0.09477 0.053509 -0.098079 0.40371 -0.10636 0.14112 -0.25067 -0.0076874 -0.013784 0.16622 0.73998 -0.11209 0.31752 0.25337 0.017149 -0.025396 -0.11819 0.0092713 -0.1321 -0.2035 0.21668 0.1471 -7.9314E-4 0.084605 -0.14475 0.19071 -0.099295 0.30613 0.38458 0.4037 0.11228 -0.062799 0.60265 -0.27696 0.4345 -0.21006 -0.38196 0.25632 -0.036218 0.062392 -0.44909 -0.52995 -0.15622 -0.17985 0.32927 0.089553 -0.40236 -0.18181 0.0043772 0.28155
block 0.061756 0.2993 0.336 0.30939 -0.33931 -0.27036 -0.19365 0.030562 0.25159 -0.53756 0.054603 -0.30077 0.11063 0.051244 0.27435 -0.25161 -0.39494 -0.49233 -0.28615 -0.23534 0.02985 0.47061 0.10471 0.12521 0.3448 -0.47288 0.48557 -0.19588 -0.045077 -0.14892 -0.14998 0.11611 -0.32601 -0.014716 -0.6994 0.23189 0.4547 -0.055774 0.34153 -0.36297 -0.26139 -0.0029255 -0.030986 -0.16065 0.39666 -0.13098 -0.15901 0.19442 0.069672 -0.20094 0.20708 0.289 -0.12669 0.032083 -0.19974 -0.51745 0.31947 -0.25539 -0.081844 -0.48312 0.10062 -0.082136 0.34574 0.41205 0.23599 0.12154 0.10628 0.053403 -0.35775 -0.43516 0.11203 0.49997 0.48089 -0.18742 0.011324 0.29813 0.13482 0.53836 0.24336 0.38766 0.20157 -0.07838 0.054473 0.023982 0.29578 -0.74169 -0.25639 0.3574 0.49803 0.15275 0.031008 -0.3711 -0.10788 -0.4292 0.38557 0.46399 -0.19556 0.11961 0.50192 0.055726
fear -0.15235 0.13573 0.1357 0.14541 -0.17916 -0.38418 0.0656 -0.22595 -0.030022 0.26339 -0.46398 0.10404 0.23667 -0.069596 0.091917 -0.58432 0.057144 -0.02569 -0.60826 -0.48671 -0.24336 0.017328 0.31073 0.034825 -0.033505 0.61949 0.1235 -0.014813 -0.23291 -0.016854 -0.030783 -0.25603 0.050064 -0.044169 -0.53542 -0.48627 -0.038603 -0.042457 0.27283 -0.26666 -0.38454 0.017532 0.30114 -0.090332 0.29332 0.22378 0.032967 0.39709 -0.1222 0.055897 0.11867 -0.43048 -0.53469 0.55391 -0.12652 -0.069748 0.20657 -0.12746 0.37539 -0.17116 0.5024 -0.22961 0.50376 0.064628 0.28039 0.30167 0.32402 -0.54477 -0.18799 -0.1134 -0.29962 0.47214 0.55045 -0.54119 -0.08504 -0.31749 -0.019889 0.29086 0.26775 0.16534 0.28471 0.016939 0.11891 -0.23667 -0.074004 0.31869 -0.25989 -0.099053 0.33785 0.085996 0.010759 -0.16177 0.47938 0.4335 0.19596 0.008527 -0.099682 -0.12276 -0.24584 -0.24652
surface 0.34758 -0.60666 0.26228 -0.171 -0.19434 -0.52177 0.22728 -0.18765 -0.11207 0.060127 -0.28016 -0.20605 0.2445 -0.20162 -0.2939 -0.5272 -0.20408 -0.37939 0.012539 -0.31361 0.0061584 -0.40728 -0.17879 0.080401 -0.11205 -0.49169 0.19819 0.28396 -0.53579 0.35411 0.11951 0.64097 -0.6387 -0.24483 -0.43509 -0.22875 -0.075368 -0.1705 0.018728 0.19393 -0.30115 -0.049365 0.52479 -0.33579 0.31446 0.24537 0.21475 0.59442 -0.27481 -0.17945 0.27687 0.05912 0.25501 0.38241 -0.56875 -0.056196 -0.26993 -0.35522 0.68743 -0.064564 0.59452 0.25846 0.2506 0.54805 -0.33124 -0.91171 -0.38345 0.18598 0.035311 -0.22563 0.27962 -0.023358 -0.038873 -0.16544 -0.59734 -0.050754 0.47288 0.27598 0.20601 -0.072258 0.40035 0.1872 0.04795 -0.30225 -0.35327 0.25815 -0.15426 0.291 0.21255 -0.078485 -0.0227 -0.0083308 0.076838 0.072509 0.32077 -0.22654 -0.50096 0.23566 0.2392 0.041416
issue -0.052945 0.2032 0.018715 -0.58823 -0.092721 0.055963 0.37409 -0.70227 -0.12636 -0.11903 -0.39714 0.15741 -0.1112 -0.069974 0.2219 -0.46279 0.030163 -0.14533 0.20995 0.41325 -0.21971 0.22126 0.31295 0.40334 -0.091332 0.28821 0.40932 -0.2107 -0.29796 -0.41351 0.24801 0.48644 0.053488 0.091982 -0.2127 -0.077382 0.087523 -0.10124 0.22536 -0.10131 -0.26041 0.021627 -0.29341 -0.42477 0.29275 0.030611 -0.33835 0.24355 0.46491 0.29624 0.27383 -0.82457 -0.25168 0.35375 -0.30717 -0.060154 -0.49436 0.018046 0.18594 -0.097271 0.47069 -0.49344 0.40257 0.6388 0.51625 -0.28218 -0.31079 0.093989 -0.53063 -0.48297 -0.26428 -0.24985 0.43883 -0.0087077 -0.091612 -0.029023 -0.2251 0.50005 0.0077007 0.052953 -0.038328 0.19007 0.2925 -0.22277 0.22735 -0.046225 0.068235 0.18826 0.17546 -0.22967 -0.023063 -0.14953 0.13794 0.01027 0.35297 -0.033213 -0.36638 -0.36643 0.61636 0.015124
metal 0.18088 -0.16713 0.012089 0.0096644 0.085715 -0.30125 -0.11875 -0.65191 0.21946 0.53805 -0.010214 -0.13039 0.48707 -0.35796 -0.084503 -0.69666 -0.21212 -0.44123 -0.52144 -0.84554 -0.62874 -0.66789 0.1495 -0.078345 0.057525 -1.0066 0.62948 0.17199 -0.37439 -0.23645 -0.046311 0.36499 -0.44185 0.038743 -0.35646 -0.34465 0.075082 0.0040799 0.41831 -0.53563 -0.35858 -0.045887 0.27472 -0.23072 0.76935 0.26488 0.19283 0.34178 -0.21272 -0.0014694 -0.30153 0.34637 -0.21795 -0.49607 0.07117 -0.21913 0.50632 -1.0034 0.52143 0.072901 0.18634 0.33562 0.21933 0.080773 -0.043535 -0.35583 -0.11404 -0.25204 -0.15504 -0.36683 0.13044 -0.22081 -0.077396 0.1336 -0.35927 0.24629 0.2602 0.40811 -0.047203 0.26277 0.54988 -0.048867 0.38197 0.13495 0.077342 -0.053628 -0.44212 -0.28889 0.14236 0.10887 -0.070903 -0.42711 0.2304 0.21838 0.13514 -0.37413 -0.23728 0.82779 -0.08314 0.042041
